221 32
0 0.197064726 0.0385253722 0.194619121 -0.141963206 -0.0048791372 0.261308828 -0.146330716 0.0211306111 0.255762069 0.238233244 0.0249593369 0.0399264853 0.215830728 0.144110495 -0.10186409 -0.0905603818 0.255569676 0.104212839 -0.0775347753 0.119533342 0.225577744 -0.136952366 -0.0874359412 -0.0192519595 -0.0412757228 0.148071703 0.00988719507 0.355744735 -0.269218284 0.0644231973 0.0547947201 -0.163889531
1 0.209615552 -0.0444744013 0.249223829 -0.0707760595 -0.119225757 0.286291619 -0.0974178123 -0.0576369673 0.290781174 0.230668848 -0.0470350167 -0.0591911574 0.229105265 0.031791404 -0.0905214601 -0.0713631112 0.279745098 0.163368218 -0.101852552 0.108514444 0.224534993 -0.17235283 -0.181877905 -0.15419812 -0.109089821 0.148582618 0.0205963735 0.244886531 -0.0854144589 0.0323349078 0.0291001482 -0.0972010326
2 0.192859741 0.0701615485 0.320201461 -0.0942173336 0.0629490868 0.338189052 0.126300238 -0.00363545856 0.307765038 0.134608953 0.115637279 -0.116187373 0.149555549 0.118083686 0.0277588242 -0.0128714779 0.204172875 0.123681813 -0.0204157097 0.028292855 0.152989736 -0.260107468 -0.159826841 0.0324928053 -0.0166009347 0.0806927947 -0.0082967707 0.284505688 -0.261545962 0.0849057994 0.0402940849 -0.0578895811
3 0.257011491 -0.00047985547 0.211253646 -0.0366910602 -0.121125851 0.184400564 -0.0593826136 -0.061086172 0.384649114 0.180075713 -0.0304754439 0.0543350977 0.201406328 0.120146162 -0.0603675361 -0.0373118737 0.217950992 0.217613555 -0.0696417742 0.129839386 0.150942957 -0.249379779 -0.157375012 -0.0508234228 -0.124249846 0.0956348088 -0.0540893771 0.228545008 -0.15632777 0.115573617 0.0637269085 -0.188485739
4 0.234658323 -0.0136839807 0.264639485 -0.0410671063 -0.0372984407 0.208529102 -0.0793352683 -0.00622738499 0.304590037 0.15942428 0.0469647726 -0.0263457212 0.243327776 0.156132939 0.0571752226 0.032464854 0.358881774 0.14068732 0.0213625129 0.0735735501 0.126243119 -0.281303268 -0.121379702 -0.072631736 -0.000765480102 0.104468849 0.00706947696 0.322591596 -0.134746161 0.200997559 -0.0266734026 -0.138368545
5 0.122785481 0.0273876993 0.17801067 -0.123117349 -0.0395716673 0.404744873 -0.153013462 -0.0537760854 0.242923649 0.258139609 -0.0288748363 0.0322947961 0.227930342 -0.0145184739 -0.131131239 -0.0424117209 0.227038398 0.165171695 -0.0330252038 0.0335597485 0.166302609 -0.276479191 -0.113377238 -0.0733771254 -0.0715339515 0.191768001 -0.0911351337 0.225306325 -0.0476453308 0.147868212 0.124865621 -0.217274625
6 0.0630870724 0.0780738175 0.0357941188 -0.17672044 0.106327786 0.0754285689 -0.142105831 -0.0568975605 0.405004521 0.118965051 -0.0184121325 -0.177471326 0.34647849 -0.0731933883 -0.125267462 -0.0332883654 0.347895958 0.311076036 -0.0341180754 0.0174588508 0.109695249 -0.159493671 -0.0658782162 -0.167152819 -0.0246665371 -0.00243192985 -0.0238371146 0.138264492 -0.0565488794 0.342231659 -0.0983456235 -0.0614447536
7 0.250455783 0.0105737986 0.0978026702 -0.0934992235 -0.139350846 0.263674282 -0.204172825 -0.0641866572 0.23235519 0.194930687 -0.00941396102 0.00825315318 0.278344013 -0.069021711 -0.0583871985 -0.0606854089 0.26235736 0.160309326 -0.0238523177 -0.00197209592 0.0968605292 -0.186914053 -0.124457282 -0.118143611 -0.0617656096 0.0615888393 -0.12363118 0.413571546 -0.168466532 0.0914492693 0.119515591 -0.136498382
8 0.193815334 0.02068562 0.28103126 -0.212321549 -0.0814425133 0.202895573 -0.0997613796 -0.170287763 0.282304066 0.328322543 0.062727783 -0.0119237061 0.189542896 0.0639520336 -0.066485489 -0.0153696628 0.338194564 0.129020804 -0.0419262962 0.10327948 0.229842914 -0.142710282 -0.213936847 -0.106963334 -0.0842029298 0.00630332464 0.0320396103 0.244671625 -0.025947733 0.130758179 -0.0177266127 -0.088860116
9 0.289903502 -0.181225738 0.0204755133 0.0613471762 -0.0459352463 0.326093672 -0.0483035234 0.0767444874 0.300769404 -0.0126062938 0.131652047 0.090901837 0.197741443 -0.121702934 0.00385010569 -0.117292322 0.333773034 0.0643292346 -0.0218987829 0.13935586 0.242834632 -0.175978192 -0.0884187145 -0.140375636 -0.0915462064 0.0684932077 0.162740743 0.265735847 -0.0978288491 0.189081085 -0.11145671 -0.0696038541
10 0.265516059 -0.0838584812 0.249092443 -0.0700018391 -0.0453034343 0.315131211 -0.0535756182 0.0080785923 0.355788085 0.207657785 0.00301957443 0.0712245191 0.154832949 0.00330521163 -0.0104012032 -0.0286276984 0.214641601 0.0801975614 -0.0319167212 0.017789001 0.184694512 -0.242349347 -0.115036017 0.0112100867 -0.0635365657 0.179214732 -0.0388074807 0.263188689 -0.159518783 0.0988200618 0.166774826 -0.121624349
11 0.171621641 -0.130981577 0.143897109 -0.0483936751 -0.0293341087 0.201025544 -0.040199577 -0.0739670415 0.353423704 0.190130536 -0.00997698325 0.0979200712 0.203649451 -0.0305580118 -0.144506842 -0.0711744417 0.309154432 0.269859437 -0.0691467141 0.0477400187 0.131886449 -0.197706285 -0.234662819 -0.0677463513 -0.165697198 0.127592001 0.00378782022 0.275975607 -0.136276754 0.180593902 0.0480189097 -0.0888021689
12 0.249234303 -0.0469526649 0.302889441 -0.0691996819 -0.100137292 0.246017658 -0.0308463814 -0.129445833 0.21582711 0.330828677 0.0101235315 -0.0216882824 0.0888158642 0.0545770396 -0.0142123458 0.00542010554 0.24622089 0.0821171699 -0.0260491556 0.0884966907 0.326494257 -0.283248286 -0.204118858 0.0451601922 -0.0540645861 0.0903231771 -0.0351533282 0.196556686 -0.119161108 -0.00239023863 0.125105363 -0.0652883144
13 0.206222586 0.0128601662 0.216099742 -0.046292173 -0.112762274 0.108016398 -0.060440511 -0.0531421358 0.315231382 0.234848784 -0.0696988033 0.0957605919 0.219176199 -0.0568984947 -0.0228192528 -0.0140464486 0.112305046 0.232386411 -0.186400994 0.0905465107 0.132120272 -0.290981485 -0.330592496 0.0275417051 -0.0914856431 0.0973780684 -0.0389843198 0.323149959 -0.117644428 0.0676471199 0.152536733 -0.138060441
14 0.178485199 0.0861100594 0.130578865 -0.0255078286 -0.18551872 0.27682911 -0.211369221 -0.0481450614 0.327179885 0.258438516 0.0540319829 0.0154740954 0.292148482 -0.0245707274 0.00583152978 -0.0513796066 0.304242674 0.210578026 -0.0810802606 -0.03658728 0.099650074 -0.255820015 -0.152210013 -0.0213492965 -0.105594952 0.159696984 -0.0630925268 0.275279116 -0.0829953761 0.0899480563 0.0394222392 -0.00987114123
15 -0.0373353192 0.184655198 0.249727985 0.0491283495 0.11605394 0.296534724 -0.129998636 -0.0861650453 0.173851046 0.194421821 0.18644292 -2.1978372e-05 0.0718387162 0.20706124 -0.105286746 -0.233717175 0.0643007965 0.192812703 -0.180317957 -0.0778914351 0.138897369 -0.118497874 -0.212371527 0.162488547 -0.152322171 0.113800405 0.0574552211 -0.151804041 -0.193761739 0.15337893 -0.129376494 -0.139953519
16 0.338612861 0.0267982489 0.234941107 -0.121967574 -0.086763189 0.139806914 -0.14505431 -0.0254629037 0.290863353 0.252986397 0.00991538154 0.0334135632 0.200570288 0.0574809328 -0.0574803518 -0.00653888637 0.197331651 0.207553473 -0.100982513 0.00952752765 0.0869845763 -0.253609358 -0.14174131 -0.102695554 -0.210276792 0.08821208 -0.0621137274 0.232912606 -0.122792491 0.00262990141 0.132124211 -0.194595366
17 0.146536593 0.0245361536 0.21783722 -0.0497023353 -0.19424081 0.24697035 -0.0343470588 0.0194027314 0.337890022 0.204175886 0.00625133175 -0.032776286 0.145514761 0.054582013 -0.0271421268 0.0674004801 0.282432601 0.202245215 -0.0750284682 0.0994452529 0.116280175 -0.267347662 -0.228609356 0.00546681354 -0.103430605 0.144620287 -0.0521808342 0.303636068 -0.0873557407 0.126847475 0.139262015 -0.153376501
18 0.114540239 0.0957672506 0.359056787 -0.135187794 0.0345411414 0.30798484 0.0443316634 -0.0297846388 0.354510394 0.180240433 0.0450211731 0.140220801 0.21865225 0.115952857 0.0583673286 -0.0133752935 0.190607666 0.119190158 -0.0766517031 -0.0693142467 0.102345467 -0.148772938 -0.100345955 -0.0226953986 -0.165428862 0.0860407353 0.0118556556 0.247574154 -0.211722917 0.0598089042 0.0424311903 -0.127670041
19 0.127710927 -0.0613528033 0.202248432 -0.256859317 0.0774488022 0.257477044 -0.126701826 -0.0429853952 0.440025861 0.1879853 0.0133580629 0.139705304 0.21227227 0.120870456 0.0744455154 -0.041626433 0.229674821 0.132772397 -0.00601380851 -0.0517734503 0.247940425 -0.114401941 -0.0569678779 -0.159460652 -0.0889296923 0.140394299 -0.0577327143 0.165644912 -0.219297271 0.0111217629 0.0271873299 -0.0622043009
20 0.122145146 -0.0623753716 0.0930484809 -0.239286211 0.00387614422 0.279549738 -0.0740286399 -0.0300560311 0.338559818 0.23883914 0.0185601184 -0.108664824 0.109527233 -0.0606992321 0.0878362334 -0.11310865 0.247981565 0.0774586118 0.0451967605 0.0514488502 0.172277553 -0.0816386887 -0.244464857 -0.0314403533 0.00938866949 0.0519194124 -0.120142465 0.245783763 -0.165806895 0.182893454 -0.0547800193 -0.368268782
21 0.0498673263 -0.0981458815 0.216765282 -0.0664120176 -0.169635072 0.27087582 -0.0437747291 0.0114172895 0.0596233193 -0.00997333063 0.0305962552 -0.00735395442 0.405399606 0.0679789853 0.170059216 -0.151822266 0.0515613127 0.215288392 0.160634299 -0.0364370183 0.0722588181 -0.190219564 -0.0691683767 -0.117999281 0.0359469662 0.0361491226 0.0556417514 0.231835761 -0.208572855 0.220894428 0.201993133 0.0663091034
22 0.254825893 -0.061116537 0.228485181 -0.13664349 -0.0706225827 0.159131259 0.0515519513 -0.000298605845 0.418781654 0.266532322 0.149145387 0.00927835281 0.176079091 -0.0719131531 -0.102147527 0.0300168109 0.253323811 0.279107383 -0.0950371501 0.028757843 0.129568429 -0.161660353 -0.112978954 -0.0476764462 -0.0504099123 0.137065491 0.0443817156 0.217797746 -0.191568511 0.0792075083 0.0497434998 -0.137184941
23 0.216436734 -0.0372053577 0.288154901 -0.0333804244 -0.0685200509 0.261469548 -0.0147193344 0.0847023319 0.317647393 0.205605733 -0.0302719202 0.0380451522 0.222767462 0.0670455711 -0.191259498 0.0472822908 0.185928058 0.152257551 0.0234002048 0.112844633 0.210019626 -0.140202859 -0.157588566 -0.0167478033 -0.00902031401 0.183417089 -0.0894740329 0.30494235 -0.0502116929 0.134207738 0.055146735 -0.148184469
24 0.135893214 -0.0565184944 0.307516101 -0.240254949 0.031386937 0.257077455 0.0495388419 -0.0286480132 0.418559462 0.138359333 -0.0234381558 -0.0407929455 0.109167839 -0.0587191117 0.0153370185 -0.0746345229 0.227672439 0.226555153 0.0596997414 0.062850502 0.102131759 -0.256601383 -0.223849946 0.0442991317 -0.021427065 0.120935817 0.0119288797 0.13109065 -0.0980195334 0.154057243 0.128878755 -0.0999808579
25 0.283593968 -0.0165602265 0.0932121895 -0.101056068 -0.0769913514 0.266876717 -0.12521915 -0.00550259485 0.329195939 0.218570789 -0.0219548704 0.0598469853 0.184676251 0.0698076092 -0.139256268 0.0106278168 0.254462878 0.313931764 -0.103142931 0.0351130056 0.0879766162 -0.118303956 -0.231787446 -0.0955466997 -0.03643243 0.159890453 -0.0757985967 0.205218757 -0.0969659385 0.104720363 0.0748673035 -0.240237353
26 0.209110177 0.13181863 0.151137139 -0.042538176 0.0611374702 0.216026222 -0.0850390334 0.00963244935 0.236390282 0.234359928 -0.0425489456 0.0231120566 0.289092618 0.135172324 -0.119978686 0.0493953356 0.197032003 0.197539865 -0.203051344 0.0891394408 0.0114021014 -0.364143786 -0.0286921213 -0.0295484462 -0.243067213 0.252465892 -0.051357177 0.102669818 -0.0528415248 0.1099996 0.230041163 0.021800158
27 0.201036846 0.0546829102 0.334369238 -0.0240593047 -0.0493610303 0.372407548 -0.16564321 0.0254007506 0.303746154 0.172499767 0.0131396501 -0.0519883544 0.188359601 0.067440497 -0.00954621439 -0.087822493 0.196175115 0.107670331 -0.234614181 0.0212519737 0.154322649 -0.299757037 -0.132721055 -0.0186966084 -0.0735166808 0.0638159807 0.0753490091 0.141968305 -0.117059689 0.0831839958 -0.0148006263 -0.127686203
28 -0.129155391 0.0285807708 -0.0491704964 0.0184407134 0.234910083 0.302648313 -0.190624163 -0.121743538 0.165438412 -0.112918834 0.240417536 0.214122146 -0.0224325411 -0.276040193 0.152553392 -0.0244868952 0.319161434 -0.0663613482 -0.277976327 -0.0918966801 0.165322926 0.218159652 -0.0849713086 -0.276891646 -0.0559446704 0.0839177924 -0.155613752 -0.0135866587 -0.0969356773 -0.0473987641 -0.134683253 0.0978127998
29 0.179645428 0.0410781421 0.154557296 -0.0984768533 -0.119695944 0.277397681 0.0297228418 0.115480897 0.288206736 0.247800116 -0.0597903669 0.0630780803 0.180012283 0.117832815 -0.209299629 -0.0372350368 0.118960793 0.194154381 -0.0353944581 0.138664098 0.0597743522 -0.173261772 -0.13276545 0.0743606018 -0.0888423263 0.18494375 -0.301430251 0.272088404 0.0741813606 0.180555721 -0.0642921482 -0.261704597
30 0.136010646 -0.0460115654 0.390772478 -0.202946183 -0.184450366 0.184044873 -0.0627636059 0.0199388402 0.202303047 0.168951038 -0.0362044695 -0.00206026378 0.168599102 -0.0167082193 -0.088995418 -0.0287474143 0.262555347 0.250517788 -0.0755854724 0.0583774409 0.0674890295 -0.281004204 -0.178093793 0.0534396125 -0.0791031566 0.141257932 0.0821434176 0.24852722 -0.108382786 0.13385457 0.116809171 -0.141899386
31 0.154766798 0.00832433621 0.230580323 0.032853511 -0.0703884169 0.264672064 -0.229639159 0.0374585829 0.374925744 0.198398529 -0.0522234478 -0.125707093 0.0142848024 -0.0903010338 -0.098049996 -0.128589878 0.265499202 -0.0510697327 -0.0329575561 0.199279695 0.282779963 -0.240246413 -0.0189688913 -0.13252617 -0.012194829 0.18147212 -0.0308004415 0.210433003 -0.264503522 0.208735773 0.0357439108 -0.0650410508
32 0.124359039 0.0209190679 0.220792951 -0.0978597468 -0.0384379367 0.442510529 -0.00213446556 -0.0433871907 0.303503754 0.308952969 0.00349626744 -0.074454469 0.199880509 0.0572795132 0.0110141885 -0.026783941 0.262331406 0.189426375 -0.171561001 0.0129006139 0.0917058636 -0.14581813 -0.140323419 -0.0143754703 -0.00814687776 0.138574211 0.0216484465 0.14614261 -0.187035116 0.0478703683 0.0907580056 -0.143478297
33 0.149844964 0.0107615433 0.378529472 -0.112142362 -0.0681962859 0.385906976 0.0104327526 0.021941862 0.366779968 0.214346499 0.040827133 0.0320532065 0.0416054646 0.0875439572 0.0889367329 -0.000762477854 0.230574392 0.195335739 0.0245124581 0.0481260325 0.0986904284 -0.146669716 -0.161485611 -0.0243083569 -0.0274053517 0.0926325695 -0.0708434112 0.160569435 -0.204604725 0.0911918796 0.00939740922 -0.0846227606
34 0.204007089 -0.0596411541 0.34865432 -0.0248498114 -0.014565208 0.244970313 -0.0836710841 0.0562168401 0.282642704 0.315934758 -0.00481364637 -0.0372671535 0.153087978 0.0522014782 -0.0843974022 -0.0468678816 0.216581374 0.120535236 -0.000407650822 -0.0169623475 0.0808314292 -0.23864395 -0.243363187 -0.0295734393 -0.0673955043 0.0986408454 -0.088871533 0.25345638 -0.00140263415 0.0566348923 0.143131412 -0.285016615
35 0.229025933 -0.125132349 0.301779557 -0.0923849834 -0.0129922768 0.273582547 -0.0822785113 -0.0450192891 0.281941282 0.171197501 -0.0147452084 -0.0388914111 0.174860482 -0.0163370372 -0.0438905341 -0.013656449 0.303335938 0.240284424 -0.130285051 -0.0272748557 0.231193916 -0.205059783 -0.0920945982 -0.0572098872 -0.115087307 0.0805484736 -0.0722355244 0.21094745 -0.157407382 0.246311062 0.0340713233 -0.12465091
36 0.0770791538 -0.0548493246 0.358638096 -0.157427333 -0.0244335166 0.223863312 0.0583026332 0.027815877 0.17737851 0.305162059 -0.203653134 0.0133329994 0.10536457 0.0344147886 -0.148890127 -0.0372993003 0.285507974 0.147095148 -0.1308681 -0.00371805182 0.00574466365 -0.279389338 -0.204852631 -0.0426404137 -0.0554470207 0.0227634251 0.0714684906 0.233424249 -0.137543027 0.250933496 -0.0398700586 -0.116659554
37 0.303777786 -0.319154994 -0.177939268 -0.0231707757 -0.0879142901 0.0874378532 -0.143821212 0.151216805 0.312550279 -0.026433097 -0.14949388 0.0512285726 0.16600447 -0.0167057151 -0.0733867267 -0.0194849124 0.202950143 0.0120318861 -0.0691405333 0.176995246 0.240217054 -0.13997179 -0.0688007344 -0.164769289 0.0283418628 0.149237984 -0.0305730082 0.252802926 -0.00162918872 -0.0422095678 0.110273827 -0.0314242199
38 0.182699283 0.0117782245 0.316714006 -0.0817193002 0.0444466098 0.336388305 -0.141823258 0.0396612417 0.318284898 0.204376798 -0.0693669551 0.101170818 0.234157091 0.185415165 -0.0174862015 0.0107182257 0.268204521 0.147599211 -0.0815642865 0.0150322036 0.184145977 -0.122084576 -0.200969521 -0.11453662 -0.0438941268 0.0801647783 -0.0221833865 0.196625806 -0.157763065 0.111254922 0.0373190426 -0.0863745297
39 0.185598405 0.24939837 0.174460824 -0.0163260763 0.130651734 0.255936692 0.12846803 0.0605222779 0.216136915 0.205707865 0.16180351 -0.00184696488 -0.0416437933 0.0535753913 -0.00803617839 -0.275995607 0.0339302039 0.272542084 -0.000275314302 0.0210951672 0.0735389507 -0.165714137 -0.339142219 0.122720351 0.0807181555 0.201284892 -0.0947270084 0.190953307 -0.0568046009 -0.10659583 -0.0941357593 -0.0697611741
40 0.219214108 0.110404441 0.255065295 -0.0929379243 -0.0908457218 0.258430018 -0.0401816716 -0.16459289 0.315794195 0.193567852 0.0790854396 -0.00174721613 0.267661299 0.120575908 -0.135146209 -0.0739469111 0.351339575 0.119631522 -0.0885818048 0.1241998 0.17474158 -0.122316326 -0.108128902 -0.0136446802 -0.0509288371 0.135843828 -0.0606008752 0.162251408 -0.195297413 0.016058718 0.0831257093 -0.161203495
41 0.144117142 -0.122738881 0.335881714 -0.136306962 -0.0238962014 0.183658316 -0.0565097077 0.0585292962 0.310799008 0.279310757 0.0375395653 -0.0336920212 0.170289443 0.0424481172 0.011281987 -0.0613973207 0.230138609 0.116013658 -0.0812770201 0.0349780198 0.170206194 -0.160619154 -0.265137447 -0.045042647 -0.212116638 0.0879593259 -0.0349688511 0.29365226 -0.143330039 0.114899942 0.0418962928 -0.0448868173
42 0.133826519 0.0252309305 0.285050804 -0.11123603 -0.0665661654 0.252393507 -0.12521869 0.0151996269 0.36410511 0.168652899 0.0241187633 0.00894517808 0.194623537 0.0541445211 0.0476593611 0.0408840277 0.205089806 0.198582808 -0.116146986 -0.0705607528 0.185405132 -0.183622699 -0.250397557 0.00521176785 -0.134383848 0.117875158 -0.022109608 0.279862195 -0.186527884 0.117033119 0.0725202393 -0.172440529
43 0.167388532 -0.0276604007 0.167499169 -0.146110304 -0.057506697 -0.0604540115 0.273663231 0.123012509 0.134284723 -0.0920526351 0.00697348564 0.201346334 -0.084163324 -0.230271818 -0.263049404 0.0954854663 0.204635464 0.027149015 0.0213234394 0.0868078388 -0.0309751196 -0.234141004 -0.184011187 -0.179137285 -0.0860542507 0.0539855422 0.197728879 0.403445726 0.027204714 0.152312499 0.224581167 -0.124427208
44 0.316798434 -0.0170740785 0.191919334 0.0219677692 -0.10276587 0.115175393 -0.338465145 -0.0884644305 0.0833581972 0.248785947 0.10117576 -0.0637034554 0.0899983078 0.0950366484 0.0649777998 0.100532878 0.325871446 0.206508304 0.0503634315 0.220034677 -0.0842995619 -0.20454012 -0.23234714 -0.0156830834 -0.0609929765 0.0730692223 -0.111086275 0.242504109 -0.0267662258 0.02828397 -0.0680610409 -0.360986876
45 0.194983385 -0.106172987 0.252274944 -0.0310831298 0.12368906 0.108272398 0.225509774 0.174203362 0.0412977382 -0.108995199 0.0557186739 -0.39387232 0.182242902 -0.0818039312 -0.0619907886 0.10143828 0.194106552 0.127004315 -0.116004315 0.049205216 -0.0593928545 -0.170287549 -0.0975743848 -0.0248917216 0.0684984063 -0.0336015638 -0.229572789 0.339758644 0.131317501 -0.0266461256 -0.0524191572 -0.0360443436
46 0.193280999 0.0680147304 -0.0856485916 -0.0669096089 -0.309800186 -0.0680770574 -0.10763595 0.0924471855 0.295651219 -0.00501735221 0.0206688959 -0.0211614097 0.157804014 0.0582469657 -0.227973795 0.0462544094 0.147487327 0.103722241 -0.0413270344 0.0984324482 0.161511263 -0.170844622 -0.0316851934 -0.114404174 -0.0723696874 0.127011858 0.120082374 0.372761944 0.0524485157 0.105891891 0.248814337 -0.131584729
47 0.242909499 -0.08715647 0.119899215 -0.0458492559 -0.229446496 0.0889793188 0.148084406 -0.0487164456 0.140960564 0.0635901961 -0.102716301 0.15957163 0.221651147 0.18980125 0.0524960157 0.142725644 0.28082805 0.0280990249 0.0896759758 0.0550419972 0.20121649 -0.222840702 -0.0905299485 -0.178543567 0.00506233785 0.000730134752 0.040806457 0.264678188 -0.095915052 -0.0619953829 -0.0195605706 -0.270590875
48 0.314370748 0.0334619953 0.112069205 0.184804174 -0.0591032416 0.0199907347 0.0569212705 0.0813165535 0.438978313 -0.0395732522 -0.0970558166 0.0158320037 0.156895816 -0.1417099 -0.0768199869 0.16660952 0.241363915 0.145780498 0.0515662046 -0.00850540717 -0.00580179709 -0.164262194 0.211283338 -0.254335027 -0.118207069 0.164232848 -0.0303658065 0.26200833 0.148267011 -0.0527641502 0.145397756 0.0975678095
49 0.154984799 -0.0294191898 0.243747952 -0.141584581 -0.0383789707 0.295222136 -0.113339514 0.0521178179 0.352000912 0.186909933 -0.0116310365 0.0509187038 0.159840652 0.070690365 0.00557337841 -0.06621648 0.272223589 0.134212884 -0.125788426 0.0626001808 0.236490718 -0.205388981 -0.127375862 -0.090879055 -0.0513828102 0.108357552 -0.0436815129 0.281824447 -0.221806917 0.0675503814 0.101740791 -0.124602999
50 0.217467601 -0.0183261122 0.173976428 -0.060777664 -0.0611884373 0.167454821 0.0122459661 -0.100438142 0.335501291 0.159638593 -0.032712569 -0.0193592327 0.206097511 0.0205870595 0.100551105 -0.0624314612 0.314183279 0.261216847 -0.122469855 0.10816892 0.198670386 -0.168725546 -0.122671881 -0.126791019 -0.0100506061 0.0258484465 0.0552778213 0.321547129 -0.23108467 0.163210244 0.0784549351 -0.229736362
51 0.217060886 -0.0166502921 0.288578189 0.00825617535 -0.0392606043 0.197284584 -0.0777277648 -0.00345879976 0.26189145 0.0963187312 -0.0550994242 0.0774366896 0.219768481 -0.0111454897 -0.139680958 -0.138276766 0.21007321 0.27416785 -0.0395665928 0.0406622097 0.0884291732 -0.26776623 -0.233073126 -0.0327665903 -0.0863956328 0.0972564484 -0.112848392 0.322637497 -0.10228869 0.150565805 0.112078304 -0.0380263797
52 0.230941699 0.0884933915 0.228776559 -0.0243749067 -0.0575534954 0.247947494 -0.00427087067 0.0460287821 0.240837401 0.284439257 -0.0626153911 -0.00358393965 0.211092902 -0.011539526 -0.00993543313 -0.145394428 0.214615069 0.318663603 -0.0706463987 0.0574855491 0.122474849 -0.327670839 -0.0471234101 -0.113704365 -0.0229990366 0.123159639 0.0017534415 0.171012937 -0.0741905983 0.0285591129 0.198892141 -0.165527465
53 -0.016191787 0.224361849 0.340215432 -0.204658545 0.0181908624 0.291922051 -0.0184435007 0.0322270418 0.219948862 0.226489848 0.0135066714 0.0744314565 0.197085339 0.212511244 -0.162280008 -0.107328001 -0.026876265 0.0189531016 -0.0232138312 -0.100245429 -0.109976224 -0.00450806895 -0.233161609 0.193815904 -0.0290995321 0.113617241 -0.143436906 -0.024985197 -0.241169429 -0.0291202044 -0.0160061241 -0.147908067
54 0.0393543916 -0.0875089233 0.0826749844 0.163346024 -0.0670554753 0.211250658 -0.262867481 -0.0547461006 0.199680018 0.179326564 -0.0172926486 0.14855327 0.343691195 -0.0240812571 -0.109559563 -0.00948034047 0.349604904 -0.0490893105 -0.00465443779 0.0697009036 0.26857925 -0.418741085 -0.107206561 -0.0138225415 0.211811991 0.170589614 0.0277350445 0.0561040075 0.0555050926 0.215695867 -0.128295022 0.264073147
55 0.14400016 -0.179721867 0.120748812 -0.159425436 0.119144984 0.267456025 -0.119500198 -0.0635438405 0.181392183 -0.137295341 -0.0804084489 0.103435966 0.35257534 0.0723658072 0.00452832168 -0.0342225982 0.261939146 0.161771089 0.131748133 0.0557438484 0.244676613 -0.0746141131 -0.140458761 -0.244223154 0.0214412597 0.00997671776 -0.0597884258 0.111818909 0.0252778465 0.136185196 0.173858085 -0.162376499
56 0.0786034603 -0.138680123 -0.156327213 0.150853419 -0.263878652 0.118030924 0.0795078008 0.0643401604 0.324160039 0.13950465 -0.0406076928 -0.0199827608 0.11297776 -0.109279643 -0.0786704204 0.0177185142 0.149342344 0.229295743 0.00440086968 0.394165586 0.0381374602 0.0494878108 -0.171550024 -0.381673857 -0.104057234 0.015435859 0.0580436159 0.101629007 -0.0402420109 -0.0663650185 0.101990277 -0.221387896
57 0.112683304 -0.131376182 0.250635399 -0.183664513 -0.0342767288 0.195581885 -0.0293450502 -0.0751093363 0.238896977 0.118842641 0.0961585867 0.00157102216 0.313278526 -0.0185914291 0.0264421523 -0.128864987 0.313425993 0.0335572237 0.024789447 0.0877601083 0.245096225 -0.110334608 -0.132494326 -0.025018115 0.0582172713 0.118496643 0.0428960427 0.320049604 -0.234513256 0.10904947 0.0354894013 -0.040307479
58 0.311431664 -0.173899496 0.178294358 0.123436279 -0.437372761 0.231651296 -0.157217066 0.0586067438 0.419126154 0.237857242 -0.0853700667 -0.0243702911 0.103557939 0.126575628 0.022279027 0.146601352 0.0637268355 0.00878723181 -0.188812744 -0.086311911 0.108255195 -0.230375577 -0.0173888157 0.116854181 -0.0126543691 0.020215576 -0.119777526 0.0783142588 -0.112047803 0.059027017 0.107671905 0.0464458775
59 0.129453371 -0.0156704923 0.212298396 -0.0701031869 0.0209225531 0.33653372 -0.104185897 -0.0213346386 0.306205088 0.281242604 -0.120085453 0.0317209349 0.193917536 -0.00783831877 0.0438129291 0.0540832017 0.202410895 0.135223459 -0.0364465357 0.151639163 0.249910055 -0.1990444 -0.291640063 -0.0993509008 -0.0260101142 0.155878062 -0.0946864646 0.215858368 -0.0960308919 0.0367214093 0.00705566491 -0.0476692428
60 0.28004244 -0.0492868417 0.200605006 -0.0920479209 -0.250565492 0.107993851 0.0206401725 0.178173 0.0926247926 0.163646315 0.0286447844 -0.304819405 0.020951398 -0.0339803228 -0.0937330056 0.0475945633 0.0398348015 0.149249982 0.0295835829 0.103261497 0.188041187 -0.29415249 -0.0722448923 -0.0170940888 0.0801806623 0.127653938 0.0234227208 0.407903596 0.0305905535 -0.00263604152 0.00147062666 -0.0599527408
61 0.0277740504 -0.00158569924 0.270868907 0.0448287757 -0.0477927846 0.178951274 -0.169455378 0.124150866 0.383146217 0.309933114 0.0415322569 0.104287572 0.229837628 0.103995787 -0.023976844 0.038582536 0.411125154 0.0255578168 -0.00671443418 -0.0238359094 0.0590519824 -0.113648842 -0.167849429 -0.203879393 -0.0233804059 0.0390277492 0.0249582166 0.298135452 -0.0647351715 0.0614149287 -0.0470005137 -0.159123985
62 0.222027391 -0.0102504786 0.283173063 -0.135177613 -0.0864963269 0.219240935 -0.0335114652 -0.0104765132 0.340113792 0.212798848 0.0130923403 -0.0368562977 0.161918568 0.0206713863 0.00295502968 -0.0385788217 0.169174688 0.263190953 -0.0566304248 0.0359950128 0.236973751 -0.228172772 -0.171650324 -0.126673449 -0.153666053 0.122589282 0.0641266682 0.278802117 -0.105647788 0.0841855972 0.105300415 -0.182724592
63 0.271868812 0.00304642023 0.177960685 -0.166206719 -0.0201058542 0.183013871 -0.0185252122 0.0209200296 0.309833126 0.373750014 -0.0801124511 -0.0601632487 0.182207613 -0.0242358288 -0.115221837 -0.0634876871 0.14438939 0.38284816 -0.0850845855 0.0803743302 0.147108326 -0.00908165853 -0.272201956 -0.000396000517 -0.163458895 0.133262177 -0.037541519 0.163657811 -0.0267745243 0.0294147619 -0.0274485754 -0.0494362573
64 0.277679246 0.13289749 0.256465505 -0.127434228 -0.139672918 0.217260597 -0.149479347 -0.151492217 0.213921187 0.191478286 0.0723539635 -0.0663721126 0.0846632849 -0.00244217046 -0.196822413 -0.142626415 0.23096067 0.198741421 -0.0400377526 0.0545297133 0.180415294 -0.270379083 -0.189764533 0.0297201606 -0.100917092 0.134056292 0.0925225937 0.249284626 0.0297538605 0.0615973639 0.201531529 -0.0907370843
65 0.196658538 -0.152777037 0.119464902 -0.122184678 -0.0408643781 0.206569715 -0.15066435 0.0493385853 0.330244266 0.0610352062 -0.0929865086 -0.022153713 0.202869499 0.130872005 -0.00258801455 -0.0328131579 0.308184672 0.096776307 -0.0307782957 0.157665536 0.189838104 -0.237459109 -0.015266441 -0.244837469 0.111006497 -0.00867476546 -0.00224397388 0.150127333 -0.0815739889 0.0738923311 0.0630043739 -0.188612328
66 0.270839061 -0.248206701 0.0324845309 -0.0538354858 -0.194514959 0.0694121688 0.0412141763 -0.128225445 0.282626111 0.0598731996 -0.164282565 -0.013303603 0.160361337 0.318385751 -0.0324876914 -0.0556342257 0.13884507 0.0842154702 0.00566487076 0.0796782024 0.1232794 -0.128164541 0.00439543163 -0.176312346 0.0326280091 0.214673805 -0.123521965 0.311416212 -0.0493413395 0.00408210433 -0.0184965471 -0.0301446715
67 0.0362602545 0.19004088 0.258287149 0.0158010682 0.0825923514 0.297248165 -0.156571541 0.0758456434 0.164183179 0.290196716 0.0878124853 0.0601612986 0.11876222 0.0351324213 -0.045381405 0.0126122736 0.142092654 0.279554011 -0.181596356 0.100212742 0.289484104 -0.0970997301 -0.223044906 0.0373791557 -0.0886076348 0.127135143 0.157654542 -0.030424396 -0.162768056 0.151109278 0.0715743218 -0.0972317878
68 0.180162802 -0.064962584 0.379620213 -0.150881609 -0.0174755758 0.269868982 0.0432134522 0.0436758024 0.281415521 0.0521224587 -0.110103639 0.0457788747 0.182477276 0.116465488 0.0672875056 -0.047831777 0.203075201 0.161432263 -0.00511807381 0.0364209858 0.240104242 -0.253082447 -0.204675673 -0.0763047214 0.0426552294 0.0955459044 -0.0787799644 0.271168493 -0.164041719 0.0714571467 0.149215315 -0.170022663
69 0.184821663 -0.165291135 -0.0283164216 -0.0611261777 -0.229348767 0.165588771 -0.127909192 0.018170306 0.255314803 0.0707531925 -0.119160491 0.0413779659 0.0917722663 0.118630493 -0.0152875867 0.0817185271 0.170735009 -0.0844866461 -0.0717691834 0.208204378 0.168016647 -0.229711236 0.00946043183 -0.0778990346 -0.138158288 0.122262773 0.108595461 0.37481588 0.0573211059 0.122540691 0.141111744 -0.165025379
70 0.273250277 -0.260942186 -0.0670216746 -0.0845531873 -0.2876642 -0.0234583353 -0.0517887834 0.0680443294 0.254001863 0.0662250069 -0.147352128 -0.015973282 0.033557282 0.143220547 -0.118021533 0.143225423 0.143333678 0.0823266811 -0.00522783041 0.13249622 0.046259017 -0.107603436 0.00336811583 0.0397129437 -0.140754912 0.139114225 0.0765706739 0.369788016 0.0826569716 0.0392799987 0.225671334 -0.142138989
71 0.104611364 0.145031761 0.166244961 -0.164112803 0.0353019885 0.156879075 -0.112156347 0.0187022843 0.347207523 0.281305928 0.0102841263 -0.098581404 0.240850478 -0.209264829 -0.0858161648 -0.0485631992 0.202431401 0.273942967 -0.0757325385 0.0310358746 0.156981212 -0.262555066 -0.202063804 -0.140835076 -0.120790316 0.0725792883 0.0299248592 0.188269919 -0.112802683 0.130045678 0.0490728705 -0.182104979
72 -0.0141750824 0.202662573 0.355742376 -0.0524424385 -0.000695176929 0.169193226 0.126214243 0.0896167108 0.216068601 0.0972668172 0.00458787942 -0.061890398 0.148012412 0.0537705186 -0.195331779 -0.19350414 -0.0433132586 0.208592991 -0.165195523 -0.0974021652 0.113452084 -0.294800723 -0.119814652 0.152897536 -0.0813874428 0.148855995 -0.0399748301 0.137034794 -0.166573771 0.0421374217 0.0675339054 -0.173793414
73 0.21466273 0.00246447522 0.305404806 -0.0669289968 -0.00126692259 0.209591457 0.0204528184 -0.0563267848 0.27929954 0.231810402 -0.0130398276 0.0736708225 0.263041937 -0.00981159481 -0.0624453299 -0.0647288591 0.245540316 0.109328233 -0.00783731848 0.161418627 0.106534611 -0.282596671 -0.182387777 -0.0725514555 -0.152877143 0.189014632 -0.0124745289 0.244587214 -0.0314001331 0.0553681109 -0.000695860566 -0.258422191
74 0.237491192 0.161155318 0.250676568 -0.172880208 -0.0595099562 0.126481957 -0.0697945699 -0.0439453212 0.359768456 0.156411167 0.011651482 0.0858457486 0.0656284719 0.0657549712 -0.0270030233 -0.102549848 0.229047285 0.140899472 -0.192396886 0.056966223 -0.0337839965 -0.270285822 -0.281028344 -0.0233900379 -0.106462422 0.0878401858 -0.00682366139 0.212030688 -0.155025912 0.164637936 0.229783334 0.0279005206
75 0.235883312 -0.092806438 0.369561998 -0.126940627 -0.104743096 0.166572368 0.00734530423 -0.0544029674 0.278563243 0.155532489 -0.0843420409 -0.124466054 0.199332728 0.0815512159 0.0212200684 0.130931536 0.245474871 0.135439598 0.0237728227 0.010829443 0.189842818 -0.15017745 -0.101097374 -0.0856476187 -0.125239316 0.164447769 0.00107518027 0.344905391 -0.156689237 0.0390166251 0.0585478134 -0.140085932
76 0.206355557 -0.0574220502 0.347048908 -0.115598519 -0.0363517635 0.222608861 -0.083733991 -0.0610580113 0.344752922 0.186134964 -0.0335318982 -0.0695028658 0.24746769 -0.022183069 -0.110276482 -0.0382967818 0.214395232 0.184904705 0.0200079591 0.144812032 0.0160892736 -0.31924751 -0.084017967 -0.102760376 0.0896333029 0.187338609 0.00210852792 0.134756645 -0.124211245 0.0806161846 0.00109331257 -0.173495621
77 0.121436809 0.0172212791 0.267189609 -0.128691112 0.0392609283 0.236602086 -0.0405696815 0.0480252493 0.376816971 0.267872091 0.0176264586 -0.0214654737 0.244565558 -0.0305774836 0.00449477694 -0.030593773 0.20329338 0.19143962 -0.0425971419 0.107563403 0.172241394 -0.167289966 -0.165623875 -0.0625257395 -0.0499458661 0.148294971 -0.0780878975 0.280694574 -0.212920721 0.149654893 0.0201159028 -0.143554078
78 0.0609034867 0.172856207 0.147104578 -0.0497363131 0.0867752834 0.189056806 -0.178071329 0.0626060264 0.318390547 0.260920574 0.271120928 0.10095857 0.276092098 -0.0393168643 0.0181633505 0.00481861459 0.369943616 0.236324054 -0.141559236 -0.0398589967 0.107686135 -0.189047067 -0.123565109 -0.102808085 0.145413186 0.0893499302 0.0945709766 0.174271471 -0.134112693 0.0870882726 0.0956019339 -0.0355892598
79 -0.105310111 0.048511936 0.216385862 -0.209849139 0.087600526 0.321626237 -0.0898297059 -0.0654476396 0.227985361 0.244279507 0.0201254803 -0.101212014 0.225384658 0.155264911 0.0719128207 0.00138682552 -0.0153396831 0.16167339 -0.122115522 -0.24495893 0.0724963253 -0.118103936 -0.285288185 0.0107705358 -0.195917215 -0.0848603484 0.114357293 0.0230606085 -0.223009144 -0.0551007658 -0.0456080713 0.107703993
80 0.345471036 -0.159540262 0.0288098694 -0.112123535 -0.192882776 -0.0954938789 -0.295277332 -0.204335589 0.193783494 -0.0346670892 0.0849188406 -0.0426086453 0.0986569266 0.0843170423 -0.278170285 0.247923879 0.0553813063 0.0721266134 0.145888358 0.237561797 0.124935792 -0.0603478169 -0.0433418392 -0.16423268 -0.0668393507 0.18124104 0.0202924817 0.189911895 0.14133708 -0.0179027887 0.0622486655 -0.0226829132
81 -0.18341471 -0.102112008 0.0911002323 0.0311639092 0.259696746 0.179514189 -0.107900962 -0.154589084 0.224617536 -0.128185638 0.26513867 0.0495838227 0.118893768 -0.0217538037 0.0481472971 -0.064351868 0.459237846 -0.060737176 -0.0841797395 -0.156597656 0.186110799 0.0953139298 0.0113661546 -0.133324686 -0.010916628 0.248812153 0.0232215497 -0.00667166818 -0.0306432976 0.299909265 -0.0191155895 -0.0269169003
82 0.0863968763 -0.228988667 0.0967216984 0.130283776 -0.415025985 0.0981786801 -0.0273933249 0.240444426 0.0446968854 0.0157476782 -0.0503257782 0.0559161883 0.199643695 0.0980674648 -0.13899064 0.180171083 0.127740326 0.0425246917 -0.303002403 0.00940456592 0.113318807 0.0337761845 0.0894206992 -0.122233997 -0.101956085 0.252425741 0.0883425911 0.342507437 -0.0108129841 0.0770102902 -0.0138134873 -0.0441309617
83 0.164108663 -0.0213119132 0.337929771 -0.143357402 0.0742467814 0.33789446 -0.125867621 0.0509738501 0.289256218 0.161443473 0.0776467442 -0.0640544035 0.131381847 0.0763371015 -0.0538977588 0.028818399 0.33871168 0.172900822 -0.0738318018 0.121721572 0.287442898 -0.130555656 -0.164947587 -0.119287353 0.0531807706 0.0222766153 -0.144490798 0.140657114 -0.0428729025 0.0617424029 0.0562875518 -0.111293008
84 0.231134735 -0.122931954 0.141178436 -0.116161226 -0.152089431 -0.0936418284 0.0808021114 0.00776624377 0.140424808 0.0258545338 -0.19544764 0.0913320768 0.147344737 -0.00240122319 -0.296901919 -0.0361264845 0.148143899 0.0315847775 -0.08880179 0.0987696352 0.141948072 -0.113881513 -0.148474686 -0.142954782 -0.2635533 -0.0263417075 0.00196560657 0.422630149 0.102871828 0.165490382 0.140374556 0.0426025253
85 0.169390381 0.0400504838 0.306246801 -0.0805182467 -0.139765091 0.241731738 -0.0155889585 0.0231855543 0.339597401 0.20953189 0.0374446435 -0.0250939327 0.174029383 0.014074292 -0.0722741638 -0.00804639101 0.277893332 0.204218194 -0.0294824944 0.0654932574 0.236170275 -0.160960162 -0.156357118 -0.123865496 -0.11479279 0.136971586 0.0114615818 0.290681889 -0.123162556 0.0179735959 0.119153974 -0.105791211
86 0.112281733 -0.0765806933 0.347211277 -0.0652931378 -0.0659967013 0.290208716 -0.0348727932 0.0321914218 0.267051331 0.254256179 0.109643453 0.0447913156 0.24169487 0.032354146 0.123918722 0.0258423132 0.182952998 0.111502366 -0.0123727766 0.00704267747 0.169740054 -0.247048739 -0.187141002 -0.101285902 -0.0633664102 0.0495994236 -0.0657298201 0.383343961 -0.161226913 0.0396487704 -0.0374995748 -0.129675008
87 0.14991253 0.0994718424 0.128667182 -0.117407469 -0.212341419 0.40563725 -0.0472692494 -0.103952977 0.325316446 0.0592405984 -0.0194294979 0.161359225 -0.0472310642 0.115653825 -0.044173191 0.0640532438 0.259798136 0.264512821 0.0403784853 0.00483875731 0.35620551 -0.193046404 -0.140253711 -0.0408828619 -0.170555263 0.161974773 0.0530410852 0.213438465 -0.108485824 0.0570746332 -0.0726532647 -0.056548427
88 0.0828915397 -0.00229890715 0.0124740256 -0.0241164636 -0.0927772729 0.250846804 -0.112231905 -0.0877499048 0.063002103 0.00166651219 0.0569098713 0.0985664095 0.309433624 0.103587399 0.16098588 -0.0216349541 0.120794426 0.367035766 0.0635472196 -0.058390003 0.14819047 -0.176131931 0.102914282 -0.0560141597 0.0530558096 0.0151130262 -0.142630112 0.312986417 -0.291363462 0.241794173 -0.036066678 -0.116215226
89 -0.023808024 -0.0486535415 -0.0887521004 -0.0826986873 0.101439642 0.358055002 -0.128675023 -0.0897901106 0.0624638101 -0.135787113 0.359823798 0.0940611417 0.20431978 -0.0479347695 0.204674675 -0.195006469 0.0940365297 0.223811878 0.0611078703 -0.1724213 0.321759856 -0.129163413 -0.227304839 0.0494128349 0.0829491158 0.114650153 0.0840845497 0.0170507663 -0.0556299189 0.0975533181 -0.153563461 -0.00169896718
90 0.244268962 -0.0612802621 0.104584162 -0.159259351 -0.136069778 0.25761626 -0.140566818 -0.11774317 0.349976629 0.191202591 -0.00251052722 -0.0961748715 0.165610087 0.0254781586 -0.0653781386 0.0127640881 0.2745673 0.142858961 -0.00361740603 0.0926770995 0.192803969 -0.166830136 -0.154585663 -0.15252286 -0.0860624378 0.175423441 -0.0635219176 0.22437366 -0.0735698656 0.132941954 0.0616932964 -0.113602006
91 0.238528706 -0.0324544935 0.268411698 -0.0584715663 -0.0687442207 0.280865827 -0.0456017196 -0.0348412247 0.32238594 0.167362776 -0.0218054485 -0.0111783752 0.280278055 0.155179517 -0.070625968 0.0258628995 0.275810464 0.160331988 -0.036299587 -0.00346718979 0.185187349 -0.170078639 -0.182121612 -0.0779836372 -0.0726032535 0.0559447688 0.0177014298 0.280237736 -0.157577718 0.0578939403 0.137695279 -0.0918827798
92 0.210669408 -0.264229137 0.110592799 -0.0240815985 -0.107318667 0.257116134 0.19824626 -0.0405608284 0.26299937 -0.0346195991 -0.129020504 -0.226149903 0.128429948 0.142674733 -0.154435641 0.0412742429 0.210062133 0.0774524629 -0.226632169 0.167285531 -0.0409265715 -0.0513585759 -0.14286266 -0.0608761969 0.261885658 0.121806904 0.158392937 0.222615286 0.232056822 -0.0204637615 -0.0167724911 0.0836925633
93 0.136357976 -0.0138087161 0.290716591 -0.123212141 0.0169372394 0.28404474 -0.0291932023 0.0338586893 0.42450458 0.182943731 0.0174396589 0.036262414 0.214241514 0.127180657 0.0268964673 0.0211976625 0.287677377 0.113870366 -0.100968331 0.0131032807 0.148685715 -0.173465618 -0.216512554 -0.0370224566 -0.112337693 0.0976400017 -0.00984806077 0.268625916 -0.20295289 0.0762428796 0.0314215366 -0.0256011262
94 0.13980129 0.129204531 0.313171581 -0.100972553 -0.165316992 0.114684364 0.0281492377 0.0770289249 0.242358968 0.170093181 0.125919585 -0.0327612729 0.225637058 0.140232568 -0.124158329 0.0273882729 0.18821844 0.0978776226 0.00390849056 0.0798905321 0.16795149 -0.252846015 -0.116179123 0.157047073 0.180600605 0.155686182 -0.0472121671 0.294256254 -0.253068742 0.252978562 0.107751265 -0.140450992
95 0.18910401 0.00926999619 0.277065741 -0.0840423927 -0.0866817164 0.14376919 0.021795678 -0.183414796 0.371633509 0.305424667 0.00590604574 0.0614626657 0.277839963 0.0732871238 -0.0899692892 -0.0267054258 0.228129591 0.151328947 -0.0450930801 0.07687978 0.109105521 -0.207690936 -0.192884463 0.0374054306 -0.0362376659 0.1790532 0.0885310242 0.131228302 -0.0818575156 0.0401755729 0.0729450933 -0.280410324
96 0.0864788464 -0.093343828 0.294906995 -0.234119343 0.0930188984 0.239177368 0.00860979825 -0.0864436271 0.112031881 0.251721896 0.0578522175 0.00343381734 0.215199287 -0.0283131994 0.0170473491 -0.199395274 0.10136363 -0.0274265339 -0.0634598455 0.0176189372 0.205129838 -0.220545344 -0.218995619 0.10641014 0.00264549239 0.0743406179 0.229956313 0.260323723 -0.247832682 0.0143906231 0.144783205 -0.0020350189
97 0.208303839 -0.06541074 0.112275227 -0.306570887 0.11261217 0.138216634 -0.0164984565 0.0210934157 0.377443859 0.215541085 -0.0173341644 0.0569571171 0.260496427 0.0297621193 -0.0853734428 -0.151868653 0.29896558 -0.0685206012 -0.00185993565 0.077935466 0.185263743 -0.108020066 -0.0932111414 -0.0346948031 0.0803152231 -0.0109682505 0.039585467 0.220255002 0.0420337389 0.135684169 0.0224312777 -0.113554577
98 0.0754339575 0.0315545978 0.224734482 0.0862320254 -0.158754529 0.38544506 -0.0175742777 -0.0801943781 0.362114205 0.161918523 0.00108455713 -0.0970681069 0.125146434 0.0627533669 -0.0556060776 -0.121643826 0.373809331 0.289698215 -0.033521384 0.0467971061 0.040589711 -0.0574999283 -0.113991903 -0.0822133626 -0.191498708 0.00336665225 -0.0402501323 0.32459045 -0.00608634112 -0.0463738598 0.193821466 -0.048512238
99 -0.150350823 -0.0687225671 -0.240008215 -0.0882173906 0.261910801 0.443502717 -0.301686735 -0.115078512 0.00294840885 0.00384143696 0.171086253 -0.0105970654 0.0947595281 0.0838734862 -0.0317102838 -0.183244545 0.306995105 0.0420072053 0.00533075121 0.109742898 0.23445019 0.0703143598 -0.223331586 -0.0217536115 -0.00987608148 -0.0226550981 -0.0236195545 -0.0958785652 -0.058271278 0.0520154583 -0.158154044 0.0134801672
100 0.133851181 -0.0915766957 0.215726506 -0.0391996344 -0.0666447351 0.268484149 -0.0118846429 -0.0103287301 0.330385549 0.287911155 0.0151808658 0.176997178 0.264900863 0.0591704358 -0.0299906025 -0.00564484511 0.274876501 0.204864526 -0.0756195975 0.0578793074 0.18221928 -0.195375072 -0.212530175 -0.0682463125 -0.0993517906 0.149372749 -0.0323735307 0.212230069 -0.149909658 0.0969854019 0.0799207304 -0.100918954
101 0.154033396 -0.0120389092 0.225068136 -0.183815907 -0.0439485588 0.220502419 -0.0971726383 0.0271916192 0.297295284 0.138524391 0.0473700059 0.0534698814 0.287234397 0.11301213 -0.111692506 0.000195781451 0.222835009 0.183704573 -0.0315782866 0.0807596348 0.258247653 -0.189496424 -0.164815416 -0.0951776614 -0.094784103 0.104528911 -0.120347346 0.248714237 -0.208791949 0.145051504 -0.010848382 -0.0921636268
102 0.161922262 -0.0766721691 0.23511715 -0.0892538016 -0.0254435784 0.234467172 -0.0048382525 0.0798715079 0.382045248 0.2212923 -0.0648141431 0.162407898 0.201006332 0.133311206 0.0652584533 0.0281959171 0.192480564 0.190273357 -0.0368034897 0.0691815631 0.230623977 -0.169037173 -0.0791578624 -0.172744395 -0.0440081158 0.16238654 0.0287664212 0.261948826 -0.171465091 0.0916750897 0.108218728 -0.0994763705
103 0.201265366 -0.223515753 -0.0174875688 -0.184027481 -0.276209179 0.0321611436 -0.0697988691 0.129123558 0.185934472 0.0290787368 -0.268921868 0.0498510061 -0.0319303366 0.156833658 -0.0725331743 0.0106912407 0.205836427 0.163643197 -0.0875948636 0.101169859 0.269220693 -0.225929343 0.0889073385 -0.201356616 0.188960392 0.170621837 0.00330876578 0.120251159 -0.00911137395 -0.0345416827 0.0249050782 -0.190375827
104 0.292020757 -0.128124471 0.097806062 0.0958095305 0.00243610058 -0.0245154364 -0.100085436 0.192389066 0.192108527 0.066003733 -0.155065682 -0.292682133 0.262262103 0.100558986 -0.070906047 -0.0651116716 0.193405427 0.105551588 -0.00406238007 0.167342488 0.195192399 -0.15778754 -0.111005399 -0.0632883734 -0.0603031988 0.178121663 -0.068488831 0.305770668 0.068415836 0.0230520045 0.104095462 -0.233683486
105 0.405282965 -0.242455776 0.116155222 -0.0852830169 -0.189082847 0.0435439601 -0.0608261603 0.0753539707 0.178019004 0.268121534 -0.0296653924 0.109344172 0.121397249 -0.125650169 0.0504519061 0.023665779 0.0688543494 0.015056 -0.0804656443 0.116619654 0.223861151 -0.298770619 0.0559998054 -0.124080287 0.10641827 0.168165512 0.0741964529 0.237287681 0.0105484014 -0.102218094 -0.0476359618 -0.0998325853
106 0.169533129 0.00960949382 0.274861983 -0.0981753016 -0.023142391 0.30919893 -0.103735339 0.0443702015 0.317561134 0.251126827 0.0205239531 0.0623802347 0.231249022 0.0402951089 0.0794771433 0.0298856498 0.18910438 0.179977785 -0.00596038217 -0.0472909102 0.154438844 -0.187574946 -0.214710018 -0.00138990938 -0.162291628 0.140517169 -0.0281459848 0.201870799 -0.256120826 0.0588391295 0.00629096995 -0.0700185029
107 0.36701344 -0.012482597 -0.0321389951 -0.073698442 -0.0521166233 -0.176667262 -0.00955411631 -0.167546954 0.455160104 0.164865874 -0.233000145 0.019482245 0.0293638472 0.126967692 -0.0141707446 0.21665415 0.129509061 0.179657204 -0.021403971 -0.0522518484 0.215279249 -0.0555244806 0.0749935807 -0.0361179733 0.017725291 0.261728188 -0.0369553674 0.043747163 0.129334576 0.0768049319 -0.332310729 -0.0567155201
108 0.140814829 -0.09570217 -0.0272294245 -0.218320578 0.0499255649 0.0210232327 0.00881723873 -0.0236443587 0.399112046 -0.0890770474 -0.233762296 0.136529944 0.134166998 0.0736295596 -0.00174264466 0.145570033 0.118011736 0.102786009 0.131124751 -0.119189321 0.260228618 -0.337362873 0.0252913409 -0.198069031 -0.140998343 -0.223428998 -0.220135186 0.296355489 0.133885247 -0.00424739876 0.0179427649 0.088857218
109 -0.0686780835 0.072872071 0.0849133976 -0.200006553 0.182324143 0.223549371 -0.242601142 -0.0278193819 0.433040181 -0.0897456922 0.470297546 0.126393748 0.055024738 0.095290214 0.134938143 -0.0752791956 -0.00603097052 0.174981989 -0.113752768 -0.132723221 -0.0068968711 0.0688981438 0.0654796082 -0.0120656142 0.071893509 -0.157910687 -0.0780895799 -0.0702793884 -0.101136992 0.267168995 0.0367966533 -0.0352446444
110 0.0603896202 0.00475896062 -0.128816504 0.0126824365 0.0502920124 -0.0702250292 -0.127446718 -0.0499229715 0.171868362 -0.0638504639 0.0392009194 0.239719785 0.390147866 0.179248467 -0.136262691 -0.0768816766 0.0485815194 0.0530081756 0.104195141 -0.0316753862 -0.0416735992 0.0761920641 -0.0652000484 0.112940256 0.133107522 0.109654199 -0.0163857235 -0.128948392 0.0465824646 -0.0228699009 0.132965932 0.0589205311
111 0.109597632 0.0343670702 0.281329218 -0.143071321 -0.0444364926 0.341561387 -0.00943576867 -0.0123258704 0.374061148 0.200596187 0.0105073868 0.0180392501 0.168893786 0.1128767 0.00302842738 0.0111970818 0.247939072 0.191970755 -0.0324897614 -0.00771681387 0.141753308 -0.200254025 -0.188219036 -0.0971617607 -0.160807963 0.123832661 0.039490247 0.232854189 -0.183256001 0.0445106189 0.0178390534 -0.141777865
112 0.217924825 0.00485157967 0.288599667 -0.103022909 -0.0772959213 0.298290726 -0.0218149705 0.0446259106 0.240397218 0.30623607 -0.0545505672 -0.0101985631 0.193437859 0.0780507304 -0.212436771 -0.0328278986 0.223688066 0.203759657 -0.0676964017 0.147819617 0.225943304 -0.303988921 -0.116354288 -0.0333464319 0.00465135447 0.0725727319 -0.0413363945 0.180889609 0.00275906799 0.0631892215 0.111243653 -0.0038547544
113 -0.0268570271 0.074572292 0.160252368 -0.0468341769 0.253922021 0.274313054 -0.0435258544 -0.0561591661 0.323689002 -0.0383735699 0.222689426 0.124139508 0.0608887064 0.00451719651 0.0877600863 -0.0357833959 0.208155885 0.207397538 -0.103118224 -0.191806277 0.219627 0.0583171721 -0.0942931987 -0.187040755 0.00943836242 0.105817503 -0.0246778243 0.161381303 -0.23910984 0.0903004398 -0.0245777846 0.0757133273
114 0.220633466 -0.0520882895 0.277563352 -0.202321542 -0.0425322643 0.189163244 -0.0211704803 -0.0299659464 0.317838384 0.153004422 -0.0216050541 0.0162084466 0.269464777 0.168843866 0.0167963175 0.00551424452 0.255863118 0.151995145 -0.00721070087 -0.000420715433 0.212689677 -0.195477642 -0.122309855 -0.0367069861 -0.0190515098 0.0882993675 -0.0186759947 0.314753951 -0.136653667 0.098690988 0.125592175 -0.119548948
115 -0.00646305046 -0.353074645 0.100249786 -0.0766001839 0.0933331869 0.146251594 -0.0261768094 -0.131070712 0.309383452 -0.103609608 -0.218743038 0.13148654 0.143441349 0.0547556139 0.187508524 -0.137086402 0.190713284 -0.117296272 -0.0211629886 0.101845423 0.165623156 -0.0584333258 -0.180763683 -0.252113539 0.19239013 -0.0985419184 -0.168007132 0.133564464 -0.0214557027 0.17520839 0.040987721 -0.120056444
116 -0.0900721107 0.151703867 0.0295888965 -0.0711773839 -0.0622038095 0.32000718 0.0380858883 -0.246304367 0.192094355 -0.219761406 0.324305208 0.127011138 0.122578712 -0.0136540811 0.0937404467 -0.0961313545 0.246729402 0.189628958 -0.0647862268 -0.141513697 0.14852933 0.218351806 -0.191254971 0.0879634791 -0.0705616228 0.0815814867 0.181946686 -0.136807386 -0.196001285 0.104196645 -0.0744731331 -0.0558551764
117 0.0259174631 0.122985319 0.55759339 0.0566306975 -0.123854833 0.188946314 -0.0179525615 0.0138858598 0.282042025 0.204025679 0.0883232666 0.109148438 0.0412619024 0.0869032683 -0.0643575153 -0.0507621309 0.111617615 0.201042895 -0.154981923 0.167340874 -0.0188932696 -0.0574724106 -0.0763604128 0.165322811 0.057559444 0.0186094442 -0.0865068774 0.0152040894 -0.101754995 0.184218577 -0.0337160131 -0.151159764
118 0.187612777 -0.0347719991 0.263533642 -0.139633064 -0.0181590663 0.368847255 -0.111236944 0.0223275386 0.304009143 0.239132362 0.0532550076 0.0465541117 0.115685126 0.138829994 -0.0373838632 -0.027835712 0.212192262 0.0577987192 -0.112536517 0.0422667413 0.177482229 -0.233533901 -0.00401960357 -0.112042521 -0.103987412 0.115108303 0.0838713817 0.163802762 -0.246560496 0.20045852 -0.0191359554 -0.163942136
119 -0.0432102289 0.0248723505 0.0663574687 -0.0578421242 0.123258539 -0.0293609867 0.0304835693 -0.0580375891 -0.0937986761 0.137549927 0.101250239 0.0976857143 -0.181470837 0.151450299 -0.115274802 0.137965484 -0.0998491897 0.093496063 -0.0503211043 0.027142965 0.0850268206 -0.123094913 -0.0558713187 0.195819099 -0.151107639 -0.0430420972 -0.0838685362 -0.14452887 -0.0183775249 -0.103684182 0.0549116595 0.10411584
120 0.155709132 0.142335245 0.229299679 -0.0571587669 -0.0181082695 0.226242646 -0.0999200923 0.00299512317 0.316896111 0.23917541 -0.0736769872 0.0675609401 0.22550199 0.0680367968 -0.062853885 -0.080229681 0.338663064 0.108484271 -0.142327011 0.0190324445 0.279437346 -0.219352643 -0.195701818 -0.0910912859 0.0570845701 0.0500259813 -0.111357986 0.251128362 -0.101719994 0.120310623 0.0193834634 -0.0540216967
121 0.227154715 -0.0280829433 0.19683415 -0.105132929 -0.0385280056 0.264492812 -0.0734325396 0.00136601803 0.273837649 0.17929338 0.056376169 0.00391446953 0.248141884 0.061300737 -0.0347960392 -0.102758191 0.329698767 0.158437107 -0.0586426945 0.123221528 0.242805116 -0.191066653 -0.171918473 -0.0541000689 0.0422987127 0.130848995 -0.0675484162 0.242869651 -0.219268336 0.14638807 0.0804890139 -0.0885259543
122 0.257920317 -0.0856278616 0.256851334 -0.173153001 0.0251051946 0.24539686 -0.158278665 -0.0374440385 0.330043566 0.250853444 0.00644043531 -0.00735538883 0.182139489 0.0359911065 -0.0592326304 -0.0683991076 0.252536114 0.309206658 -0.0260331624 0.0209700822 0.122904075 -0.159517979 -0.123794362 -0.0712242335 -0.055828497 0.0884538647 -0.158049239 0.239194833 -0.0884320135 0.0328447109 0.217188892 -0.140019446
123 0.121181922 -0.241285988 0.101678165 -0.341960815 -0.002179066 0.132375142 -0.10659767 0.0819777492 0.266620856 -0.081179584 -0.0877901689 0.0961837217 0.297592523 0.128154796 -0.0111216684 -0.0981890978 0.0677582974 -0.0216846928 -0.0986272008 0.117699033 0.214321021 -0.0635799728 -0.0640913845 -0.157675334 -0.017767235 -0.234132692 -0.0289568972 0.260300441 0.1188105 -0.000549657219 -0.128198819 -0.161387514
124 0.0391762092 -0.076887896 0.292669933 -0.222644668 0.119201133 0.316014026 0.000574976505 0.0254527263 0.326241386 0.294056714 -0.0350847844 0.119866581 -0.00488064303 0.19947432 -0.00422518866 -0.216969298 0.163613786 0.144460256 -0.154191752 0.0892896506 0.169426195 -0.125140717 -0.13838095 -0.207825566 -0.00636275583 -0.0126774153 -0.162838942 0.101284333 -0.142251385 -0.0865527065 -0.0109456263 -0.0168663702
125 0.0591978713 -0.134535333 0.209002265 -0.113129519 0.0312213785 0.320075958 0.0365269147 -0.0899201494 0.271624198 0.135309032 0.0195234819 0.256431441 0.00485685169 -0.020257989 0.129565839 -0.0693613982 0.0830571178 0.256087334 0.135164849 -0.0532399017 0.0590197346 -0.211233111 -0.10946224 -0.0870055874 -0.00409836136 0.182711999 0.145614727 0.197661685 -0.236986528 0.1025786 0.10630636 0.0381523049
126 0.108497027 -0.259530789 0.168230237 -0.245927771 -0.125862959 0.349604055 0.0423969811 -0.116135053 0.113151607 0.273467323 0.0157778048 0.0592089494 -0.0323931515 0.15631613 -0.0264048664 -0.21155974 0.210603394 0.133687654 0.112692731 0.0278189041 0.0504555026 -0.0934440346 -0.0751073074 -0.0730183924 -0.123980489 0.180827118 0.0408904954 0.328325319 -0.169873095 0.0945486591 0.0321988014 0.0594742861
127 0.19508814 -0.17332248 -0.289705597 -0.116784042 -0.110920788 0.025815989 -0.109252918 0.165086581 0.325902395 0.110007071 -0.0719886061 -0.000877510733 0.194102113 -0.111756672 -0.189700948 0.0541766867 0.140757392 0.00605614162 -0.0611127979 0.281685768 -0.0179936542 -0.167789649 -0.0473103082 -0.0748877824 0.0200915183 0.08437268 0.0232189115 0.313609243 -0.0799034269 0.129677479 0.163229147 -0.146505152
128 -0.0586938692 0.153576312 0.367735425 -0.064738235 -0.0757179717 0.140130485 0.0870189769 -0.0765177504 0.164075856 0.000403482584 -0.0568812148 -0.0737398997 0.210717076 0.189859195 0.313427799 -0.200133761 0.131977094 0.0918707303 0.184255297 0.05894211 0.175212106 0.234011561 0.272494326 0.212127366 0.161885548 0.0818938964 0.0114584022 0.247153105 -0.0563969646 0.0609933835 0.126358401 -0.0265634035
129 0.351123112 -0.102448298 -0.0215667387 -0.192265215 -0.00583075103 -0.262043675 0.0346489092 0.0470367003 0.174953483 0.0489820454 -0.169019428 -0.101926392 0.214955121 0.0367388344 0.192254775 0.231272452 0.157020718 0.156931802 0.174264649 0.0498293058 0.0927288093 -0.173837834 -0.0527704092 -0.257245271 -0.0622920781 0.175960215 0.0336230173 0.121495458 -0.0906935793 -0.0281560753 0.0517524625 0.0578144486
130 0.261128642 -0.038114312 0.0477245496 0.275405199 -0.173963195 0.155001505 -0.045820765 0.0563699536 0.527681982 0.182659951 -0.0467979181 -0.0976553737 0.0788652096 0.25020669 0.0266014132 -0.0564714207 0.121507747 0.0826988984 -0.0984746172 0.0796555998 -0.0159655242 -0.271284928 -0.212755028 -0.0669796886 -0.0713781634 0.145408366 0.0964242441 0.102837469 0.051647688 -0.167643225 0.162287088 -0.0799869621
131 -0.0802219278 -0.112696921 0.23299351 -0.235684226 -0.0419285616 0.202586501 -0.0292213092 -0.120045604 0.258255181 0.130009893 0.0410469082 0.230606223 0.108838964 -0.19909121 0.0454278637 -0.0716182283 0.138869731 0.0940566886 0.152461032 -0.231378788 0.171152302 -0.142554726 -0.183553011 0.0264539205 -0.0974723455 0.0609613016 0.163091393 0.320418015 -0.11343747 0.00590228677 0.0630395433 -0.0516579693
132 0.376458801 0.0951260645 0.23011961 0.329683743 -0.0546118001 0.0353864232 0.0850142251 0.0687293138 0.328169366 0.138192666 0.0527246927 -0.0812665014 0.220874198 -0.177891777 0.0193675557 0.229293776 0.192104706 -0.0330478285 -0.104728316 -0.0115629656 0.0910195282 -0.234607543 -0.152227136 0.0505918164 -0.268360449 0.0217513219 -0.00293323482 0.209106409 0.0927997068 -0.107886745 0.186541434 -0.0508691491
133 -0.140676073 -0.0933629327 0.290440849 -0.246157701 -0.0017714485 0.192283254 -0.161545115 0.0445235282 0.322127747 0.125961204 -0.195905923 0.301624476 0.0405537513 0.164467587 0.190346598 -0.0913980958 0.206689342 0.161814445 -0.0653133621 0.0888391496 0.0761205118 -0.027221322 -0.221087368 -0.160121127 0.0977298916 -0.0122502027 -0.114258529 0.1544559 -0.133004633 -0.0205791021 0.0832976998 -0.203487116
134 0.00572560143 0.0704737157 0.303358656 0.016943191 0.00520433159 0.297712663 -0.0522755192 -0.0630820929 0.310644083 0.194581462 0.0664700792 0.120750622 0.161960913 0.038947943 0.0174020552 -0.107883453 0.243180559 0.228102517 -0.11766972 0.0219489433 0.217458875 -0.110920923 -0.175555007 -0.0215464062 -0.117142663 0.186040965 0.0137354091 0.0611159954 -0.285151843 0.0653550238 0.0667121191 -0.0797306838
135 -0.0833995231 0.217483571 0.054767966 -0.212380226 0.0871881488 0.236855507 0.00090907268 -0.110731914 0.129943572 0.0180363173 -0.0128162436 0.114196361 -0.0589501947 0.159622088 -0.126413041 0.0690820671 0.0676292151 0.117103525 0.123977321 -0.228914397 0.305040932 0.102779166 -0.0627106628 0.117197712 0.343221966 0.0989440464 -0.119732354 0.292185038 -0.0302166105 0.218898071 -0.157903048 -0.17389108
136 0.170233257 0.061013254 0.427032984 -0.116964071 -0.107507286 0.234780344 0.0023410162 0.103873335 0.189089122 0.268722583 0.0461223684 -0.0266833016 -0.0811036391 -0.182542516 -0.148594593 -0.244888169 0.0593569583 0.301785249 -0.045805126 -0.0323880639 -0.0835076037 -0.047015075 -0.147510739 -0.0193399229 8.17600944e-05 0.000735037672 -0.133945942 0.108521012 -0.251700105 0.0915651825 -0.00640721266 -0.0542165578
137 -0.082961068 0.0434979473 0.241607774 -0.158780921 0.154830523 0.0642848116 0.0695532203 -0.23376783 0.324145547 0.374465586 0.0444437917 -0.039017396 0.198429718 -0.0547478463 0.000375353069 -0.00861456038 -0.00261166629 0.121304511 -0.0291432775 -0.095335276 0.154959996 -0.0941494079 -0.242837971 0.0169866467 0.00166500364 -0.149345468 0.0937020249 0.118167373 -0.163489936 -0.0315419078 -0.0334831356 0.0464763355
138 0.0456605151 -0.0289039248 0.145614382 -0.173480917 0.129788788 0.27875254 -0.0500909808 -0.000957901319 0.274574204 0.0459828847 0.0502386327 0.0124017888 0.140518971 -0.0434964197 0.160580821 -0.0944146475 0.00883463081 0.130293195 0.166449194 -0.121677722 0.260465876 0.00664953213 -0.0448930278 -0.13496987 0.0738493098 0.256408116 -0.0512347238 0.29159263 -0.142235447 0.160552781 0.116151241 -0.167828822
139 0.0269261582 -0.0191600543 0.259912881 -0.249097378 0.0666132405 0.343960248 -0.0196344253 0.00498254775 0.263271244 0.126247157 0.0763378806 0.0878301459 0.202587492 0.0236093547 -0.0235570143 -0.129387753 0.163644919 0.231769425 -0.0379518478 0.0396240647 0.155815404 -0.232247969 -0.23685641 -0.0586569471 -0.0819602684 0.0752193292 -0.084409362 0.142724001 -0.200540114 0.0647379543 0.0646006715 -0.0522736696
140 0.167826744 -0.248377774 0.257368641 -0.140619499 -0.105776609 0.0686557475 -0.119193039 -0.141166547 0.129503782 -0.166030895 -0.0368172217 0.0681414664 0.23158918 -0.0408935187 -0.166995491 0.00417891919 0.307924547 -0.253595063 -0.131978701 -0.135896766 -0.0675734003 -0.131366451 -0.245511066 -0.29117168 0.0722668107 0.0875527336 -0.00193443027 0.278844709 0.0182471864 0.0568693356 0.1172056 -0.0535571097
141 -0.0925882918 0.00393150496 0.2121411 0.183953364 -0.0980432 0.0533599277 -0.142203821 0.16983842 0.297597251 0.246611808 -0.0419350237 -0.0475111888 -0.125226478 0.16467103 0.0642663611 0.157555118 -0.183024483 0.112299748 -0.252166624 0.0357786505 -0.0853217724 -0.286889223 -0.174134291 0.257586033 0.0369565735 -0.119149847 0.049993202 -0.0256278058 0.0635309038 0.0993020008 0.158791438 0.189028191
142 -0.0745127913 0.239614487 -0.016217926 -0.113637542 0.108582737 0.382711635 0.0601334941 -0.016773237 0.105429779 0.0871779221 -0.166710923 0.0185719899 0.176567889 0.121826043 -0.202056238 -0.0362595402 0.21420741 0.167370354 -0.0553042406 -0.0775322675 -0.0868363475 0.121827294 0.00308923592 0.0687532646 0.00641172682 0.112758297 -0.197271984 -0.0728208725 -0.120020873 0.0152164178 0.0259932228 -0.340665183
143 0.0207372163 -0.046575694 0.105126241 -0.105038773 0.182598442 0.369179814 0.0616089773 -0.032495588 0.264335199 0.0446887986 0.111872612 0.240881533 -0.0294672307 -0.0218941017 -0.00237080585 -0.266547821 0.038808706 0.17547121 -0.0697214461 0.0318881449 0.162061966 -0.142066697 -0.206861293 -0.109652942 -0.0253390685 0.203885918 0.118282584 0.199773154 -0.158944872 0.151951576 0.130151168 -0.188276265
144 -0.00694704073 -0.335087034 0.103081476 -0.0717821201 -0.0833353838 0.243191901 -0.286721847 -0.00253003711 0.275565627 0.0218262167 0.100809653 0.135109731 0.384044926 -0.0997742804 -0.0257708962 0.127476665 0.289810911 0.12894149 0.0188087324 0.0674478032 0.261140868 -0.0667040379 0.0615049938 0.0774615543 -0.0389115491 0.145293565 -0.0333266169 0.187643592 -0.220965841 0.12122225 0.157885001 -0.0481902546
145 0.0113666012 -0.0917421442 0.0496840924 0.104255941 0.00736684553 -0.0333740332 -0.0497553204 0.0880696121 0.0651070508 0.130216391 0.0747565381 0.117735627 0.158772374 -0.144532563 -0.0292371427 -0.0553307314 -0.0493384288 0.0357379728 0.0782968358 -0.168888243 0.132012219 0.135500243 0.0551598461 -0.0545727675 0.0218718985 0.087886387 0.0895283806 -0.0529039437 -0.107687162 0.0539818337 0.0665479109 0.0984739304
146 0.046464954 0.180527106 0.349246328 -0.159082446 0.0942274113 0.781982189 0.218214853 0.200910849 0.244720976 0.495732691 0.555546292 -0.0124125113 0.111206986 0.123030679 -0.248661286 0.197565352 0.234717945 0.350123966 -0.297790871 -0.0196154246 -0.0137077703 -0.0651437909 -0.265010505 0.156303992 -0.4719859 0.109301166 0.369907028 0.0642541162 -0.164916588 0.0319235034 0.0382404831 -0.0319486169
147 -0.0669125913 0.138065605 0.221251177 -0.23809893 0.245505105 0.783466135 -0.32133482 -0.130441837 0.481139517 0.210582842 0.367462507 -0.0229928535 0.322469657 -0.0857125805 0.0587717921 -0.216089557 0.499356318 0.344502271 -0.176384603 -0.0841896155 0.448585633 -0.0859314298 -0.316318814 -0.135942888 -0.14409918 0.165929913 0.0115056913 0.188669393 -0.333435976 0.251924183 -0.0617568604 -0.0581823143
148 0.445457664 -0.00265949061 0.0413336747 -0.161588144 -0.352108604 0.161863819 -0.0550487542 0.385656812 0.370728647 0.190206132 -0.274726458 -0.0169180785 0.120781559 -0.00628887059 -0.0613642243 0.0336881432 0.368050789 0.217155804 -0.0840827806 0.24957786 0.379796285 -0.212582991 0.106241434 -0.514289277 0.0498119765 0.35364324 0.274675442 0.545092435 -0.165408098 0.0067117029 0.502886067 -0.288723878
149 0.0597023251 0.410805054 -0.0677969578 -0.3578736 -0.0727374937 0.784596736 0.00401838226 -0.08873189 0.418204426 0.108656063 -0.106679208 0.153815909 0.060786634 0.137550908 -0.0521179887 -0.154730207 0.515585737 0.080310454 -0.108126434 -0.0624662765 0.210303095 0.374153228 -0.218356515 0.0465717505 -0.306946145 0.2571361 0.0970751259 0.206094548 -0.281032211 0.218506719 0.141649796 0.247492574
150 0.514071981 -0.261140637 0.254647124 -0.0943124508 -0.333335793 0.446079529 -0.0880126345 -0.0319136347 0.594380352 0.218595194 -0.174383399 0.0514574656 0.327569764 0.208950559 -0.0760111621 0.0590246449 0.50614019 0.0321645185 -0.0082874791 0.315006272 0.406578977 -0.325568264 -0.18882415 -0.212083886 0.164161233 0.173128727 -0.0752228522 0.637661894 0.0227151433 0.0322942948 0.107985955 -0.189985015
151 -0.00811781066 0.311722982 0.124327734 -0.0424562687 0.22218197 0.543288936 -0.0544341494 -0.00341235797 0.52075405 0.189262507 -0.0525775261 -0.223807945 0.16046987 -0.021714887 0.0554664102 -0.0698066661 -0.00671716628 -0.0783706781 0.295588657 -0.356987196 0.547239112 0.0510083923 0.0292863567 -0.159167586 0.120005932 0.545825263 -0.35245253 0.469601321 -0.0429033332 0.279175232 -0.0251299707 -0.566357435
152 0.516609238 -0.369007901 0.280966916 -0.243562115 -0.28742054 0.192036788 -0.140552063 0.0893146642 0.636977523 0.128745206 -0.0538416265 -0.0168031954 0.378993067 0.0633874912 -0.0356874728 0.138203378 0.520021794 0.0959919018 0.131556353 0.136103015 0.16790413 -0.467895761 -0.216088618 -0.183552666 0.0691754738 0.275069372 -0.0621114944 0.585910022 -0.164891257 0.19920555 0.232336426 -0.330636366
153 0.169949407 0.290360984 0.678526678 -0.172827181 0.112999311 0.539293151 -0.0436288255 -0.0669210495 0.440421315 0.560632127 0.0836150515 0.0204094834 0.259950929 0.114322434 -0.111237078 -0.212376271 0.277707938 0.480880331 -0.208237879 0.0254616496 0.176173889 -0.342368861 -0.39175761 0.156049291 -0.18788947 0.165171029 -0.0950637031 0.17177061 -0.398331451 0.185272023 0.0520283831 -0.176412377
154 -0.379030967 0.276939295 0.471897977 -0.0217210528 0.20274244 0.663658803 0.0755853616 0.156644279 0.491479952 0.110992964 0.166889305 0.182387595 -0.156528881 -0.399526693 0.151199103 -0.280449217 0.140365942 0.243207368 -0.0868475041 -0.315329139 0.222157414 -0.165581198 -0.205699906 -0.152409964 -0.351187089 0.153517321 0.228414642 0.174870785 -0.279591994 -0.320832288 -0.093567929 -0.35000047
155 0.523199337 -0.0520605167 0.34311745 -0.0954775073 -0.184054567 0.214599202 0.176322747 0.261569143 0.423748004 0.186416266 -0.0169326478 -0.2895641 0.294342404 0.0898325151 -0.0530856629 0.115389185 0.149408388 0.157385768 0.0321888333 0.121155655 0.172441017 -0.4019102 -0.374543521 -0.224784145 0.048576429 0.232598926 0.00860591864 0.937437038 0.0177227833 0.0354560052 -0.0206702838 -0.210064545
156 0.204669948 0.328354727 0.396258249 -0.0309372821 -0.103598859 0.240671894 0.227978937 0.246138054 0.6515108 0.460159409 0.190756155 -0.134736632 0.361305401 0.0707745689 0.122646364 -0.0839349317 0.0557518622 0.309614902 0.154094671 0.125641401 -0.23199399 -0.276385379 -0.315412703 0.326224764 -0.459282861 0.0887692372 0.124181369 -0.236482192 0.0331069837 -0.368689789 0.089453852 -0.150719546
157 0.662951792 -0.197715109 0.258819587 -0.106668866 -0.277680236 0.199660807 -0.166343232 -0.0290065451 0.432403261 0.196361365 -0.0886565367 -0.00253010301 0.476531798 0.298910346 0.0484738867 0.0848705106 0.513817577 -0.0352371479 -0.154800771 0.154998142 0.397227084 -0.435098288 -0.133619412 -0.455636185 -0.145163965 0.173323722 0.108760743 0.478155554 -0.0539690472 0.0800129151 0.121275808 -0.14194442
158 0.544249969 -0.34187505 0.109519626 -0.224470488 -0.377137726 0.143429941 -0.10518248 0.0287813817 0.598211187 0.201020002 -0.194261441 -0.0990147589 0.231919159 -0.0115515383 -0.262579092 0.0124735984 0.446776343 0.131568896 -0.105549051 0.229115066 0.235264697 -0.412942816 -0.21950007 -0.239864711 -0.125915919 0.227156295 0.0333090936 0.700765325 -0.000632068654 0.135243423 0.231123593 -0.253644846
159 0.276991236 0.0727585785 0.67706585 -0.250673905 0.353579399 0.308443608 0.126245365 0.0188882262 0.0643946846 0.179997454 -0.017786744 -0.217172313 0.485004527 0.26913585 0.283997454 -0.0796003356 0.530632054 -0.222126145 0.0522727923 -0.0872475916 0.332189762 -0.312589122 -0.220088293 0.108294952 0.348257962 -0.129965486 -0.161484639 0.367355452 -0.431399434 0.025895717 -0.131075063 -0.0515490329
160 0.449848479 -0.372509503 0.200047626 -0.068036991 -0.351327395 0.132736052 -0.142351785 0.0680636748 0.552584956 0.220522012 -0.119384479 -0.0324987227 0.509993084 -0.0381267397 -0.125695626 0.168120388 0.427602499 0.256324476 -0.0151236119 0.200917965 0.336041652 -0.212333587 -0.0772507234 -0.300671885 -0.20644299 0.23890325 0.104468623 0.651691581 -2.16560226e-05 0.221997381 0.235082293 -0.321864138
161 0.51981657 -0.134651682 0.0718489241 -0.10935042 -0.334676124 0.0794328442 -0.156385773 -0.0704030582 0.691223754 0.23294389 -0.0910296963 0.0167473246 0.41756719 0.0270228973 -0.292821529 0.192244473 0.398505811 0.191132786 0.0624370333 0.203997805 0.262827036 -0.495130626 -0.118215688 -0.299291433 -0.0995511436 0.283850998 -0.0920930486 0.507666099 -0.0100942232 0.244751486 0.247754129 -0.236837803
162 -0.00402719166 0.377472925 0.218482555 -0.576611922 0.148174382 0.218017713 0.0633085269 -0.37231233 0.216006598 0.162572009 0.477261901 0.357960839 0.250368191 0.123514054 0.118786698 0.076749164 0.0727874801 0.379090384 0.279597096 0.0437169432 0.350828268 -0.475018506 0.0858637206 -0.106056816 0.249432465 0.256375596 -0.303927037 0.213401566 -0.0581456504 -0.0878827346 -0.0449179797 0.121523313
163 0.116626843 0.142812718 0.577978183 -0.454610318 0.288017358 0.15567097 0.056386728 0.124833155 0.391643215 -0.276879846 0.0151656237 -0.448351803 0.210813979 0.140925123 0.241044914 0.0862296628 0.336384228 -0.12037371 -0.313653488 -0.259539469 0.171780669 0.19261821 -0.0727516182 0.100258844 0.244079569 -0.235586646 -0.214483474 0.2114593 0.0448735164 0.477892668 -0.136099321 0.282010769
164 -0.0119400997 0.0136947002 -0.0826857322 0.103011575 0.131405621 0.0057291658 0.00775224601 -0.125999502 -0.125947134 -0.122907295 0.0430848811 0.0784312858 0.0708539409 0.00386049965 -0.0844378716 -0.0706908371 0.0706585955 -0.00664557016 -0.0782572024 0.139642079 -0.0830637465 -0.0956966676 -0.0539746293 -0.0644255288 0.00460619606 0.123567261 -0.0091339296 -0.0329662387 -0.00275182966 0.10388623 0.0265768099 -0.0752519917
165 0.071958174 -0.080547401 0.729719393 -0.445027005 0.235253216 0.400762132 0.322227478 -0.119534208 0.386171929 0.304406976 0.0816458394 -0.154660509 -0.184761698 0.0656300195 0.326951166 0.0163229678 0.0251405903 0.291442246 0.235496662 0.0161653739 0.248678168 -0.0394674827 -0.0950651765 0.104290498 -0.0111600546 0.0720450726 -0.226542825 0.374028067 -0.472191502 0.182870777 0.0151181654 -0.432006592
166 -0.113218486 0.0526386035 0.271533117 -0.265886979 0.0693714812 0.387207062 8.07726991e-06 -0.111277793 0.147491903 0.0111087886 -0.157791797 -0.0621968107 0.328869697 -0.122819071 0.086869476 -0.0891574461 0.84832332 0.301775758 -0.0625827575 -0.091529783 0.215307928 0.301914335 0.133830725 0.347632204 -0.21567003 0.242448624 0.308738027 0.2521948 -0.0538670821 0.241270821 0.273211635 -0.319528926
167 0.152785686 0.290874753 0.0674510245 -0.511264421 0.221998434 0.377713105 0.224818451 -0.200261718 0.288852875 -0.138153503 0.303441629 -0.0474982954 0.341444149 0.271357595 0.283801725 0.0438147985 0.304361719 0.445778483 0.380729432 -0.129885581 0.215871974 0.0141217738 -0.131605385 -0.203666206 0.401700205 -0.0424304103 -0.0826681135 0.29698236 -0.34677881 0.454219959 -0.126069468 -0.362354747
168 0.229021883 0.168771449 0.46823713 0.0875703844 0.110195024 0.716688329 -0.184348947 0.0271599651 0.429735726 0.202492623 0.21023153 -0.188782818 0.247675378 0.203911467 0.162616083 0.0462900632 0.509257965 0.236279493 -0.152811305 -0.157695315 0.176718767 -0.4883137 -0.440131565 0.167478044 -0.226888608 0.0802787246 -0.0112144157 0.0818292638 -0.446185466 -0.0349497987 0.146670953 0.0970174267
169 0.415927379 -0.381030448 0.210946993 -0.161177473 0.0258888032 0.27438487 -0.095624519 0.229761991 0.549918247 0.333188434 -0.259589101 0.00183730442 0.502241949 0.0765824297 0.0512140725 0.121163728 0.57227751 0.228370854 -0.14342822 0.123068126 0.0675929825 -0.58190916 -0.063694372 -0.460412815 -0.137822 0.0298867727 -0.112336544 0.392951999 -0.219000394 0.0695722644 0.0626416356 -0.119277217
170 -0.10106327 0.247687159 0.000679501536 0.435500664 -0.245107901 0.385987659 -0.0462240234 0.114381333 0.675958087 0.289908552 0.217120021 -0.0719467466 0.126387735 -0.0179517874 -0.44857227 0.215551706 0.163978581 0.0669129518 -0.380351935 -0.210474152 -0.0779228038 0.132550478 -0.343719142 0.0439046389 -0.462586789 -0.294724594 -0.0899321182 0.033550837 -0.295341871 0.142917782 -0.0600360853 0.0395702252
171 0.466319984 -0.353133282 0.0134402689 -0.202791363 -0.428601991 0.184725516 -0.114954384 0.0392344534 0.386678076 0.195785035 -0.142607045 0.0868613742 0.285537689 0.055546304 0.010734175 -0.0727918137 0.573730127 0.190416597 0.0105693931 0.307755317 0.404620741 -0.463121002 -0.197903937 -0.402751162 -0.178850275 0.28158082 -0.109324617 0.376193481 -0.107973818 0.21793367 0.13660859 -0.384106166
172 -0.0947801296 -0.114192927 -0.0190829027 0.0103877412 -0.168768094 0.0740054557 0.109386383 0.0236871982 -0.0382610589 -0.0226935878 -0.00273101503 -0.137601959 -0.114376352 0.0397974057 -0.0550093165 0.175505756 0.0438892967 0.0111388193 -0.0152434301 -0.0809360514 0.0343152351 -0.0281871374 -0.0141561864 -0.0435656475 -0.00579586394 -0.116122787 -0.0442655594 0.0740397806 -0.0999672471 0.12301354 -0.0679703568 -0.11544902
173 -0.378974707 0.259163217 0.0918301866 -0.176605464 0.35993063 0.592355546 -0.0194548249 0.0665766134 0.211746661 0.120522705 0.00890228289 -0.0418824088 0.232576867 0.412589144 -0.199285479 -0.483352733 0.315477471 0.205990345 0.172103351 -0.202593097 0.0327969055 0.0601047793 -0.152939055 0.0130091151 -0.00189070051 0.158757236 -0.259366449 -0.215483415 -0.284581425 0.167485558 -0.132837999 -0.471179336
174 0.526384187 -0.387567958 0.233539121 -0.217560507 -0.0717103211 0.212143123 0.19126338 -0.0941963009 0.657234967 0.183312044 0.0543919121 0.0346590995 0.264703257 0.388343072 -0.177126032 0.0987567345 0.378435986 0.0729642011 -0.0403819825 0.237648835 0.278592251 -0.28243931 -0.349012497 -0.374790471 -0.12621361 0.215443796 -0.127930749 0.60249788 -0.177355685 -0.0116706961 -0.00638983948 0.0320838882
175 0.423794348 -0.300029629 0.137055154 0.127006834 -0.310427737 0.237788803 0.0135644016 -0.113374053 0.639571217 -0.0757839513 -0.138356958 0.285629661 0.296606573 0.0220894225 -0.0137988415 0.184904045 0.58751151 0.143125594 -0.00810890085 0.21267538 0.271739515 -0.374283175 -0.0419044174 -0.419745568 -0.0737916019 0.267694119 0.359814425 0.39573515 0.0140491442 0.204388157 0.00643516428 -0.329810609
176 0.5174414 -0.370082047 0.206764738 -0.144008411 -0.209656189 0.0664026891 -0.117126276 0.11834852 0.435885472 0.053163231 -0.235740866 0.390848208 0.413849398 0.129463687 -0.145550338 -0.0550033053 0.474826888 0.0531744454 -0.148100104 0.0699321761 0.265365517 -0.329148451 -0.280914069 -0.293580395 -0.0965531483 0.239590135 -0.0460408113 0.574758358 0.0660091217 0.372428457 0.296542567 -0.204549612
177 0.431400679 -0.268670297 0.235929881 0.0228401793 -0.371319091 0.291277118 0.0414774799 0.115025361 0.464107238 0.326954411 -0.141057305 0.0544679919 0.292122851 -0.0376545099 -0.322483338 0.0508850209 0.315105956 0.107540318 0.135407644 0.204405046 0.36072619 -0.482454567 0.0179811918 -0.225921004 0.169177923 0.214170279 -0.110884427 0.708710433 0.0519909997 0.0380400514 0.30727548 -0.213977265
178 0.535508472 -0.316739247 0.367230498 0.166981073 -0.318034404 0.0136411232 -0.0974089717 -0.0713381348 0.198599581 -0.146771357 -0.176737387 -0.0544551835 0.343877335 0.0993831861 -0.246532551 0.0383183239 0.312076181 0.318261796 0.0282215389 -0.0294879227 0.395150596 -0.0675990694 0.000115670878 -0.379290504 -0.252734685 0.0688562266 0.350666194 0.299428062 0.356511972 -0.0246530088 0.527993911 -0.140546173
179 -0.0600790502 0.279624524 0.747873477 0.0738128041 0.0612279677 0.564575881 -0.176354208 0.0478493454 0.474843038 0.450667587 0.318391218 -0.0965424674 0.304911519 0.101585864 0.278112743 -0.0291498063 0.469070934 0.210743006 -0.256839619 -0.145340063 0.0824026819 -0.188141403 -0.264567982 0.0281138967 -0.312960533 0.0767067089 0.047018164 0.260277755 -0.226563168 0.0822783349 -0.156146636 -0.0989114758
180 -0.250982573 0.106974982 0.399841404 -0.0537708073 0.0337039447 0.250171973 -0.140815982 -0.136624861 0.320069714 0.219288022 0.44701998 -0.178029894 0.137231704 0.00487108879 0.0558170706 -0.0487604152 0.457238419 -0.171401597 -0.307552197 -0.279052968 0.288235409 0.272660865 -0.132844851 0.444165075 -0.56450212 0.050910726 -0.196048772 0.496976055 0.0975419158 0.0277434308 -0.139499931 0.0258894554
181 -0.247663424 0.171557037 0.0774057791 -0.0249703672 0.124396166 0.0319119576 -0.319886857 -0.188158813 0.265876651 -0.467677886 0.585325467 -0.145767702 0.21747147 -0.101338275 0.184329571 -0.0504200427 0.249817973 0.385811531 -0.434114601 0.143784491 0.280326857 0.130547539 -0.143978241 0.0972608521 0.186634069 0.358545904 0.278937248 -0.155680297 -0.547996833 0.231852638 0.0234263797 0.243927503
182 0.195614102 -0.318685341 0.313913364 -0.327739418 -0.323411267 0.232399509 -0.0481160352 0.081052252 0.396383665 -0.00117491906 -0.249667951 0.0175661795 0.362375108 0.124601807 -0.322466393 -0.312516467 0.11799648 0.340608807 0.0741581197 0.100568386 0.353921517 -0.295822838 -0.0558831817 -0.338179124 -0.214855867 0.0522258558 -0.151261351 0.738240924 0.247886704 0.0253950656 0.0422215366 -0.425062947
183 0.0705278854 0.084973356 -0.0290120355 -0.0261526914 0.0584224371 -0.0068681337 -0.0194313161 -0.0361778054 -0.0505124955 -0.0654604217 -0.063546809 -0.0472073321 0.0430410591 0.0519556593 0.0414381 0.229360352 -0.162267947 0.0717206841 -0.0888168078 0.0979091605 -0.0236209444 0.0378685951 -0.008781688 0.0900593645 0.0412853978 0.0284051069 -0.0298232133 -0.113449824 0.0551658883 0.0918000331 -0.216823782 -0.0764854566
184 0.440552606 -0.0478217019 0.655181774 -0.336811733 0.29939252 0.0701356729 -0.231649964 -0.26363256 0.0902475734 0.126246375 0.0313866761 -0.106494931 0.842385031 0.271066661 0.021664324 0.0321306418 0.052741177 -0.0899926606 -0.0447966701 -0.260741689 -0.106049116 0.0173320227 -0.271395209 -0.153563895 0.252380488 -0.215705693 0.250008783 0.296190888 -0.151440715 -0.111126288 0.313358337 -0.149931942
185 0.0718383146 -0.23157926 0.468069467 -0.44524307 0.0497169231 0.60600801 -0.0417563107 -0.0741871818 0.530240462 0.276900214 0.120651976 0.278317768 0.247996767 0.00443921747 0.122397735 -0.216592889 0.244509135 0.329598971 0.0262019212 0.000959423868 0.335817626 -0.307795215 -0.272506775 0.0208133424 -0.123011077 0.252330596 0.137914401 0.51620114 -0.450459226 0.228167438 0.234269038 -0.146531472
186 -0.0815037882 0.136932582 0.570000872 0.179685548 -0.0948226738 0.0212141487 0.0768091999 0.120046072 0.290498456 0.0997121843 -0.0192540989 0.369366897 0.205210177 0.259940287 -0.290320687 0.0459447541 0.245539137 0.229634511 -0.346373186 0.252069592 -0.17896782 -0.0922846016 -0.623023517 0.03089255 0.122798843 0.2706584 -0.306105616 0.146146009 0.0186468772 -0.106393829 0.546331002 0.27661995
187 0.097763174 0.200491513 0.502760891 0.263983658 -0.0915530132 0.346289952 0.00588386026 0.169537469 0.536499202 0.374191519 0.0762297656 0.102721769 0.25380828 0.421191556 0.139442574 0.207562377 0.0827903259 0.433143172 -0.246727218 -0.193713633 0.0672452968 -0.541771276 -0.396459259 0.294821294 -0.322693993 0.0191633474 0.0235215119 0.117510031 -0.251480713 -0.000531258085 0.141526654 0.0661591447
188 0.568610462 0.441647731 0.584931327 0.0469200887 -0.230502021 0.124259788 -0.0268003551 -0.135009035 0.587086089 0.178642354 -0.27388931 0.151241344 0.181349183 0.227038305 0.196684058 0.0338272661 0.506193293 0.175499207 0.10158817 -0.196680932 0.213939151 -0.265806913 -0.189286653 -0.196100629 0.0898661267 0.183024383 0.383679492 0.0943170176 0.188374939 -0.0215676731 -0.182611836 -0.351506353
189 0.0464669524 0.136099322 0.0868744036 -0.514042489 0.381014536 0.139184014 -0.122489402 -0.166562758 0.255206823 0.111041174 0.110251596 0.183690826 -0.136936619 0.498696649 0.0668976075 -0.40759948 0.438953727 -0.47337044 -0.134225713 -0.030485694 0.437218157 0.0495423241 -0.113190043 0.0465435081 -0.0616048057 0.187912074 -0.11218379 0.398267152 -0.514864696 0.439422412 -0.147463904 -0.0309089294
190 -0.0814861595 0.417689937 0.159807065 0.417853656 -0.280819898 0.396832563 -0.0419601168 0.159118523 0.452776497 0.368425045 0.146392923 -0.161534463 0.1531959 0.245727111 0.31162436 0.154142536 0.405175899 0.1738118 -0.111044994 -0.156942628 -0.278178988 -0.403540449 -0.554327868 0.0264899461 -0.212463054 0.0226915601 0.0705652098 0.0251787062 -0.195594547 -0.378177946 0.0506481584 0.186901793
191 0.292791244 -0.331097248 0.280179909 -0.355454546 -0.357942515 0.0870573375 -0.0124069478 0.0200052936 0.379270871 0.256628404 -0.150624293 0.149453197 0.223333725 0.140901035 -0.0836616934 0.00477428125 0.278624611 0.253175381 0.297813548 -0.0450554621 -0.0244185547 -0.646945803 -0.142386248 -0.239093688 -0.212378731 0.381115167 0.135602929 0.674194337 -0.31359368 -0.0491675172 0.167603722 -0.190452689
192 0.664459789 -0.0658512833 -0.134611187 -0.417131835 -0.5436501 -0.078937795 -0.394406555 0.246675493 0.350201053 -0.034737786 0.0287177236 0.30347703 0.311698797 0.141287712 0.215564376 0.21795827 0.358976028 0.0622609779 -0.015124882 0.0418993207 0.0421707316 0.433578412 -0.328413518 -0.172222823 -0.338961136 0.226037143 -0.0727971292 0.359708361 -0.0212790493 0.182023505 -0.0484281457 -0.0460053618
193 0.418607408 -0.344053815 0.138335213 0.00726043269 -0.252797366 0.314057931 -0.0783451575 0.0734418476 0.509749758 0.125885094 -0.231513972 0.259338497 0.194193588 0.236596885 0.153016011 0.0321786518 0.484757722 0.248209195 0.190350762 0.129403577 0.277656057 -0.435400042 -0.471513503 -0.189968225 -0.217515382 0.0554855472 -0.192503627 0.567506782 -0.117568361 0.222671761 -0.135665509 -0.289564278
194 0.542954533 -0.189844063 0.242094263 -0.0998534965 -0.242693368 -0.0440932843 0.344026477 -0.0320700518 0.57731203 0.15810624 0.0149489463 0.274167187 0.571078257 0.318568918 -0.0931064392 0.335114639 0.289341791 0.0506914386 0.0726620998 -0.135712037 0.145091494 -0.286606837 -0.0317306552 -0.15210149 -0.128540227 0.0629096378 -0.217447316 0.569670759 -0.22318323 -0.228687989 0.186843139 -0.238781779
195 0.286667643 -0.417238084 0.301955485 -0.394025008 0.0872446726 0.30520539 -0.182458989 -0.0786249378 0.576163781 0.0619074319 -0.197605722 0.129866523 0.352527976 0.328219913 0.12597261 -0.161954004 0.400631025 0.0501512052 -0.0503672906 0.192636498 0.483651071 -0.218452506 -0.230910617 -0.343989505 0.167820366 -0.120906656 -0.189828532 0.577096794 -0.0674902615 0.052357359 0.0916641814 -0.313005278
196 0.123601679 0.277715234 0.468311579 -0.599269784 0.234028355 0.532971335 0.0519771301 -0.0447710308 0.366820275 0.280407791 0.0245123774 0.191065013 0.393763077 0.145000041 0.239407963 -0.107179407 -0.176836713 0.0592621098 0.0655359578 -0.270312409 0.295614288 0.0124760111 -0.234950884 0.0289292497 -0.167286416 0.175147634 -0.122055229 0.320332571 -0.652988646 0.0190483749 0.119400795 -0.0299538743
197 -0.0518353992 -0.188411473 0.329953763 -0.410711952 0.203223259 0.46914627 -0.0103132258 -0.388405067 0.0143628934 0.343951021 0.150928843 0.159774209 -0.176632915 0.384325399 -0.00328044814 -0.307680679 -0.0562162555 0.240995063 -0.0166842575 -0.123048213 -0.0176863388 0.073837938 -0.114978812 0.248909208 -0.465758935 0.383220369 0.104134341 0.308229873 -0.568135982 -0.13608677 0.10680114 -0.396645807
198 0.438889255 -0.250743678 0.224193743 -0.281458965 -0.461010994 0.0213201945 -0.261002774 0.111200819 0.558222692 0.077717437 -0.0924632833 -0.0168083914 0.166608146 -0.0841771166 -0.058502561 0.0594854942 0.495399366 0.496242627 -0.082318536 0.0196539914 0.390495602 -0.339769555 0.239434893 -0.343400794 -0.0183714376 0.299587803 0.0180458902 0.444962558 -0.243712513 0.0128558541 0.247011976 -0.118273117
199 -0.161204851 0.125822808 0.632376492 -0.165205368 0.177330107 0.643674215 -0.092492122 0.125832 0.516176765 0.59032039 -0.0211921539 0.281224353 0.266457513 0.196390528 0.22476984 -0.126624696 0.231528332 0.378234936 -0.160229637 -0.0422375043 0.176736289 -0.041054476 -0.294497307 -0.012325408 -0.098468142 0.115966196 -0.0378705773 0.0869651368 -0.489152793 0.0499531292 -0.0826183611 -0.147257843
200 0.151171776 -0.0724484701 0.45068897 -0.195693638 -0.211958287 0.34032557 -0.0185523242 -0.070434794 0.421501151 0.198229046 -0.0394739963 0.0191946957 0.60715524 0.105233538 0.162464405 -0.128210936 0.344684271 0.40667502 0.175543606 -0.00376922509 0.319330534 -0.269796025 -0.113870178 -0.234964968 0.0460249887 0.133508502 -0.18721461 0.601782545 -0.460971606 0.402317934 0.30178203 -0.1240066
201 -0.0538853222 0.129581442 0.589932467 -0.317618003 0.120776056 0.423551344 0.175573514 -0.229308416 0.572050851 0.636337547 0.0868468318 0.00286062725 0.370161049 0.0517792815 0.0626190576 -0.0521183719 0.0485641003 0.205636426 -0.0925383243 -0.143070159 0.223537943 -0.27764545 -0.565537731 0.0644813914 -0.0889828861 -0.110628738 0.206624302 0.283462484 -0.370028249 -0.0849759929 -0.0432537122 -0.0956155655
202 0.464698405 -0.217898217 0.166783418 -0.355776195 -0.0615887928 0.187459957 0.208384727 -0.115947786 0.45967084 0.0140680962 -0.256033068 -0.31414679 0.1083257 0.133556131 -0.114685516 0.102586128 0.752346259 0.139088229 -0.139139038 0.364465751 0.298168893 -0.350167262 -0.21406235 0.148413166 0.251331059 0.155127592 0.160022814 0.260899837 0.0800575566 0.235346616 0.228371276 -0.323411714
203 0.443096945 -0.32737698 0.472838802 -0.124397614 0.0963987663 0.225685094 -0.234266016 0.130245474 0.452355489 -0.142254406 -0.104279023 -0.131815958 0.516711752 -0.00713877885 -0.11933271 0.19793455 0.333304598 0.100041627 0.118142353 0.216162072 0.527514964 -0.308969271 -0.0757556387 -0.326213191 0.303728871 0.204373944 0.00829641804 0.550636166 -0.204727121 0.157023213 0.185668267 -0.0299864771
204 0.109186241 0.030750028 0.0963035212 0.0707237906 0.445080035 0.699349664 -0.407446521 -0.193464722 0.202081834 -0.425547336 -0.0215571879 -0.19178267 0.134197213 -0.0709053016 -0.0237580345 0.000216337741 0.44001834 -0.123802552 -0.356969507 -0.0538812595 0.487436708 0.297145589 0.0369533413 0.0372215315 -0.147645069 -0.0578452878 0.0921141575 0.319450403 -0.219679564 0.288738817 0.191565786 0.00764444083
205 0.472301094 -0.172672917 0.177960968 -0.193337344 -0.176830508 -0.154050574 -0.0883538975 0.0084072171 0.474914092 -0.156204736 -0.178263948 -0.186451803 0.175838508 0.146825598 0.26214227 0.294489436 0.583993768 0.103021515 0.0128362981 0.120218335 0.146695809 -0.427230504 0.0342284167 -0.477880336 -0.0197204902 0.518742025 0.206234066 0.525481705 -0.204661075 -0.117407174 0.0568740472 -0.0100182038
206 -0.176732191 0.171346112 -0.0139648712 0.00574952929 0.294676184 0.384615267 0.054050058 -0.304998758 0.575348141 0.00869099336 0.194273536 0.15866094 0.109658468 0.161222225 0.205142077 0.116188367 0.556943249 0.386787846 -0.0796799383 0.411187753 -0.123091374 -0.335004309 -0.13912904 -0.461025265 -0.0285802289 0.023343114 -0.160918628 -0.0532427255 -0.170088185 0.144368175 -0.192314623 0.472506427
207 0.518112877 -0.0704959345 -0.219047819 0.0862659207 -0.213157563 0.121706225 0.0425382234 0.0472717109 0.514751849 0.246250344 -0.0950345715 0.218444691 0.433146144 -0.0438696605 -0.0521892234 0.101532032 0.528090058 0.6056287 0.189744566 0.0390787415 0.381678719 -0.444149973 -0.0812127359 -0.0608682745 -0.016653607 0.373143216 0.109340711 0.383909471 0.101224083 -0.0168953694 0.226854399 -0.143810429
208 0.420363209 -0.0738281549 0.284468002 -0.524387149 -0.0131685646 0.224759106 0.0638930524 -0.0419599026 0.663868013 0.41696639 -0.0675871107 0.0611164612 0.363475566 0.0101370837 0.00518923657 -0.154571492 0.441466733 0.156056077 0.102738945 0.157841836 0.430477417 -0.338516377 -0.297760373 -0.195161596 -0.0481193563 0.261611425 -0.161335425 0.533834766 -0.285220053 0.29939247 0.0146764964 -0.0225390071
209 0.442920825 -0.450415589 0.366924664 -0.195010186 -0.187478259 0.159296391 -0.10286117 0.0962278851 0.58653251 0.0899535603 -0.403442053 0.115861549 0.521308492 0.408029191 -0.0226144699 0.296103797 0.457720714 -0.0100637655 0.0175424986 0.193994975 0.229355814 -0.227494426 -0.0479312873 -0.254740953 0.00452934153 0.00860022966 -0.170352325 0.493312954 -0.128728627 0.083219371 0.172440772 -0.109106807
210 0.711263763 -0.0647128074 0.185235489 -0.234303696 -0.170558584 0.0898141922 -0.139584161 -0.0724897868 0.493627095 -0.0624921312 -0.113192029 0.0521309599 0.364322662 0.367397304 -0.145049167 0.12448565 0.382972055 0.0528768472 0.057812366 0.143790333 0.606182946 -0.450252847 0.0020674099 -0.346686329 -0.0666980057 0.14981566 -0.124724487 0.411545936 -0.26192101 0.00705000955 -0.175081114 -0.225899383
211 0.180472776 -0.324806369 0.191502749 -0.2042401 0.00280245649 0.539769661 -0.0283154563 -0.0936064036 0.785302586 0.0917870495 -0.0376341077 0.0760026276 0.24851505 0.0505933052 -0.138052343 -0.267041037 0.410719952 0.425174679 -0.0389050423 0.260282601 0.35564392 -0.245777837 -0.0272089594 -0.446463117 0.379763987 0.0334271004 0.0061717593 0.22492385 -0.186602245 0.328840717 0.170496239 -0.112475465
212 0.264392778 0.369431487 0.541486332 -0.00216074881 0.0547417736 0.2458201 -0.212981285 0.2408751 0.294188332 0.421363031 -0.22320142 0.190432507 -0.0333030888 0.248362806 -0.0652176742 0.221113042 0.201433879 0.438277475 0.0351474366 -0.278090237 0.111585996 -0.340380824 -0.417727583 -0.102549359 -0.575159486 0.0917303433 0.439941127 0.0852267212 -0.210552817 -0.0427894524 0.0855295814 0.0461364043
213 0.573878548 -0.325544597 0.174329348 -0.0780013642 -0.242647819 -0.00401977672 0.00647647656 0.0518431503 0.400668497 0.300950169 -0.218348995 0.207152842 0.327271048 -0.201502771 0.119823257 0.298447265 0.372201104 0.0588439203 -0.0234592439 0.248910818 0.253801034 -0.197547953 -0.318659961 -0.265651209 -0.129590759 0.263185986 0.0464483434 0.572010386 -0.0221423049 -0.235063356 0.384140373 -0.416523871
214 0.518413176 -0.445351803 0.173704259 -0.303455728 -0.291070478 0.319551589 -0.0225106591 0.0457131373 0.103701512 0.0666248778 -0.041609023 0.00480553139 0.0194845115 0.497371587 -0.15749144 0.0574040535 0.277668379 0.432214164 0.3396559 0.0146521597 0.493089113 0.0283621316 -0.083196449 -0.157699975 0.252618367 -0.314743115 0.122129033 0.564656228 -0.122967306 0.133717042 0.0467026192 -0.446953571
215 0.568701625 -0.53572384 -0.0295570538 -0.1616904 -0.283204398 0.0292802546 -0.306416457 0.222116056 0.329543766 0.0278053931 0.0692655547 0.258989188 -0.232553634 0.0478356332 0.201711353 0.0535742451 0.108811572 -0.400731696 -0.129585396 0.144019729 0.193939944 -0.430101642 -0.258897995 0.0710448923 -0.172740523 0.295445981 0.186384134 0.426362426 -0.318157855 0.280278354 -0.149109394 -0.198459772
216 0.0110607673 0.137396987 0.397280079 -0.188020826 0.182677635 0.64360079 -0.191249743 -0.0847251531 0.425425302 0.302994275 0.229316925 0.0269407566 0.257289922 0.00682174844 0.0392417414 -0.191916652 0.393284164 0.347519729 -0.152448986 -0.01872818 0.29467815 -0.161102525 -0.27405048 0.0147401742 -0.141371146 0.171991603 -0.0135977177 0.196518177 -0.306789513 0.214684692 -0.0280638709 -0.0952598819
217 0.441124766 -0.274882456 0.184705493 -0.147499239 -0.279717111 0.191813548 -0.0807501102 0.0280321193 0.518901133 0.158113376 -0.135899297 0.0609395793 0.325157211 0.085526265 -0.101238398 0.0650909631 0.406827435 0.157198866 0.00962761156 0.179219452 0.294078515 -0.350102065 -0.142504057 -0.269795058 -0.0513482718 0.222319129 -0.00520473666 0.542081788 -0.0588085878 0.133764383 0.181718317 -0.211836787
218 0.0555526534 0.111864767 0.584357277 -0.367833137 0.0998147591 0.434965992 0.0773425577 -0.0757847806 0.392735337 0.448794184 0.0376228918 0.144117953 0.19652269 0.0769947414 0.0383690696 -0.215227216 0.120382273 0.309497334 -0.0332887152 -0.0292386519 0.199540678 -0.187137772 -0.214914331 0.0735836672 -0.141490161 0.182181594 -0.0949559297 0.280669207 -0.452675611 0.19280609 0.0914428241 -0.202636309
219 0.0670495093 0.241182862 0.572985432 0.0605722889 -0.00540000788 0.4341251 -0.0276414305 0.0583250705 0.456926427 0.469966154 0.0596794436 0.0309237222 0.224889213 0.19199136 0.0176770602 -0.00570188821 0.227110053 0.36635592 -0.211581953 -0.0706372087 0.0753510717 -0.338600194 -0.409788476 0.128888097 -0.208916799 0.0613645124 0.0485920792 0.112837457 -0.307521564 -0.00229483052 0.0589946544 -0.043851689
220 0.330273351 -0.0948854981 0.434452967 -0.311508467 0.152491456 0.396783308 -0.0268133778 -0.0417138162 0.476698865 0.176078083 0.0415342637 -0.0967233885 0.423014769 0.217085999 0.23640559 -0.00689230848 0.355408612 0.0387716148 0.0967706726 -0.0141555551 0.331495287 -0.247403522 -0.281557713 -0.117614223 0.176041536 -0.0453862324 -0.105145235 0.489865164 -0.306504747 0.0797494318 -0.0057041142 -0.167437074
